digraph Tree {
node [shape=box, style="rounded", color="black", fontname="helvetica"] ;
edge [fontname="helvetica"] ;
0 [label="Rating Count <= 736439.0\nsquared_error = 3411655495433.7\nsamples = 4017\nvalue = 96166.4"] ;
1 [label="Rating Count <= 32750.5\nsquared_error = 291291336310.6\nsamples = 4016\nvalue = 64931.8"] ;
0 -> 1 [labeldistance=2.5, labelangle=45, headlabel="True"] ;
2 [label="Rating Count <= 4623.0\nsquared_error = 100769655103.8\nsamples = 3993\nvalue = 38580.0"] ;
1 -> 2 ;
3 [label="Rating Count <= 266.5\nsquared_error = 40260593291.5\nsamples = 3922\nvalue = 17345.9"] ;
2 -> 3 ;
4 [label="Rating Count <= 53.5\nsquared_error = 788181885.8\nsamples = 3554\nvalue = 4179.6"] ;
3 -> 4 ;
5 [label="Rating Count <= 27.5\nsquared_error = 240537857.3\nsamples = 3056\nvalue = 1444.4"] ;
4 -> 5 ;
6 [label="Rating <= 1.4\nsquared_error = 250545954.3\nsamples = 2793\nvalue = 1066.4"] ;
5 -> 6 ;
7 [label="Category <= 11.5\nsquared_error = 22908663.8\nsamples = 1877\nvalue = 492.3"] ;
6 -> 7 ;
8 [label="Category <= 8.5\nsquared_error = 64361132.0\nsamples = 374\nvalue = 1003.9"] ;
7 -> 8 ;
9 [label="Category <= 7.5\nsquared_error = 30967208.7\nsamples = 340\nvalue = 641.9"] ;
8 -> 9 ;
10 [label="Minimum Android <= 4.2\nsquared_error = 58809306.7\nsamples = 177\nvalue = 1071.2"] ;
9 -> 10 ;
11 [label="Size <= 6.8\nsquared_error = 60566.8\nsamples = 89\nvalue = 152.3"] ;
10 -> 11 ;
12 [label="Size <= 6.2\nsquared_error = 102056.1\nsamples = 35\nvalue = 259.4"] ;
11 -> 12 ;
13 [label="Ad Supported <= 0.5\nsquared_error = 85099.1\nsamples = 34\nvalue = 232.5"] ;
12 -> 13 ;
14 [label="Size <= 4.1\nsquared_error = 53092.9\nsamples = 11\nvalue = 89.3"] ;
13 -> 14 ;
15 [label="Size <= 3.8\nsquared_error = 76638.5\nsamples = 8\nvalue = 133.0"] ;
14 -> 15 ;
16 [label="Size <= 3.1\nsquared_error = 1616.6\nsamples = 7\nvalue = 46.3"] ;
15 -> 16 ;
17 [label="Size <= 1.4\nsquared_error = 1119.6\nsamples = 6\nvalue = 32.9"] ;
16 -> 17 ;
18 [label="squared_error = 0.0\nsamples = 1\nvalue = 100.0"] ;
17 -> 18 ;
19 [label="Minimum Android <= 2.6\nsquared_error = 543.9\nsamples = 5\nvalue = 23.3"] ;
17 -> 19 ;
20 [label="Free <= 0.5\nsquared_error = 18.0\nsamples = 2\nvalue = 4.0"] ;
19 -> 20 ;
21 [label="squared_error = 0.0\nsamples = 1\nvalue = 1.0"] ;
20 -> 21 ;
22 [label="squared_error = 0.0\nsamples = 1\nvalue = 10.0"] ;
20 -> 22 ;
23 [label="Category <= 3.5\nsquared_error = 450.2\nsamples = 3\nvalue = 37.8"] ;
19 -> 23 ;
24 [label="squared_error = 0.0\nsamples = 1\nvalue = 1.0"] ;
23 -> 24 ;
25 [label="squared_error = 0.0\nsamples = 2\nvalue = 50.0"] ;
23 -> 25 ;
26 [label="squared_error = 0.0\nsamples = 1\nvalue = 100.0"] ;
16 -> 26 ;
27 [label="squared_error = 0.0\nsamples = 1\nvalue = 1000.0"] ;
15 -> 27 ;
28 [label="Content Rating <= 0.5\nsquared_error = 3.5\nsamples = 3\nvalue = 9.2"] ;
14 -> 28 ;
29 [label="squared_error = 0.0\nsamples = 2\nvalue = 10.0"] ;
28 -> 29 ;
30 [label="squared_error = 0.0\nsamples = 1\nvalue = 5.0"] ;
28 -> 30 ;
31 [label="Size <= 2.8\nsquared_error = 86137.0\nsamples = 23\nvalue = 296.6"] ;
13 -> 31 ;
32 [label="Size <= 2.4\nsquared_error = 102998.2\nsamples = 9\nvalue = 481.3"] ;
31 -> 32 ;
33 [label="Category <= 3.0\nsquared_error = 44680.6\nsamples = 7\nvalue = 351.7"] ;
32 -> 33 ;
34 [label="squared_error = 0.0\nsamples = 1\nvalue = 10.0"] ;
33 -> 34 ;
35 [label="Size <= 1.3\nsquared_error = 25600.0\nsamples = 6\nvalue = 420.0"] ;
33 -> 35 ;
36 [label="Size <= 1.2\nsquared_error = 40000.0\nsamples = 3\nvalue = 300.0"] ;
35 -> 36 ;
37 [label="squared_error = 35555.6\nsamples = 2\nvalue = 366.7"] ;
36 -> 37 ;
38 [label="squared_error = 0.0\nsamples = 1\nvalue = 100.0"] ;
36 -> 38 ;
39 [label="squared_error = 0.0\nsamples = 3\nvalue = 500.0"] ;
35 -> 39 ;
40 [label="squared_error = 0.0\nsamples = 2\nvalue = 1000.0"] ;
32 -> 40 ;
41 [label="Minimum Android <= 4.0\nsquared_error = 38360.8\nsamples = 14\nvalue = 176.1"] ;
31 -> 41 ;
42 [label="Category <= 6.5\nsquared_error = 13114.9\nsamples = 8\nvalue = 98.7"] ;
41 -> 42 ;
43 [label="Size <= 4.9\nsquared_error = 6.2\nsamples = 3\nvalue = 7.5"] ;
42 -> 43 ;
44 [label="squared_error = 0.0\nsamples = 2\nvalue = 10.0"] ;
43 -> 44 ;
45 [label="squared_error = 0.0\nsamples = 1\nvalue = 5.0"] ;
43 -> 45 ;
46 [label="Size <= 4.3\nsquared_error = 13760.3\nsamples = 5\nvalue = 131.8"] ;
42 -> 46 ;
47 [label="Size <= 3.9\nsquared_error = 30000.0\nsamples = 2\nvalue = 200.0"] ;
46 -> 47 ;
48 [label="squared_error = 0.0\nsamples = 1\nvalue = 100.0"] ;
47 -> 48 ;
49 [label="squared_error = 0.0\nsamples = 1\nvalue = 500.0"] ;
47 -> 49 ;
50 [label="Size <= 4.5\nsquared_error = 306.1\nsamples = 3\nvalue = 92.9"] ;
46 -> 50 ;
51 [label="squared_error = 0.0\nsamples = 1\nvalue = 100.0"] ;
50 -> 51 ;
52 [label="Size <= 4.8\nsquared_error = 625.0\nsamples = 2\nvalue = 75.0"] ;
50 -> 52 ;
53 [label="squared_error = 0.0\nsamples = 1\nvalue = 50.0"] ;
52 -> 53 ;
54 [label="squared_error = 0.0\nsamples = 1\nvalue = 100.0"] ;
52 -> 54 ;
55 [label="Size <= 4.0\nsquared_error = 53385.9\nsamples = 6\nvalue = 321.2"] ;
41 -> 55 ;
56 [label="Size <= 3.3\nsquared_error = 400.0\nsamples = 2\nvalue = 30.0"] ;
55 -> 56 ;
57 [label="squared_error = 0.0\nsamples = 1\nvalue = 50.0"] ;
56 -> 57 ;
58 [label="squared_error = 0.0\nsamples = 1\nvalue = 10.0"] ;
56 -> 58 ;
59 [label="Size <= 5.0\nsquared_error = 33347.2\nsamples = 4\nvalue = 418.3"] ;
55 -> 59 ;
60 [label="squared_error = 0.0\nsamples = 2\nvalue = 500.0"] ;
59 -> 60 ;
61 [label="Size <= 5.6\nsquared_error = 60025.0\nsamples = 2\nvalue = 255.0"] ;
59 -> 61 ;
62 [label="squared_error = 0.0\nsamples = 1\nvalue = 10.0"] ;
61 -> 62 ;
63 [label="squared_error = 0.0\nsamples = 1\nvalue = 500.0"] ;
61 -> 63 ;
64 [label="squared_error = 0.0\nsamples = 1\nvalue = 1000.0"] ;
12 -> 64 ;
65 [label="Size <= 25.0\nsquared_error = 23333.8\nsamples = 54\nvalue = 85.8"] ;
11 -> 65 ;
66 [label="Category <= 2.5\nsquared_error = 4789.1\nsamples = 38\nvalue = 51.9"] ;
65 -> 66 ;
67 [label="Category <= 0.5\nsquared_error = 508.7\nsamples = 13\nvalue = 13.6"] ;
66 -> 67 ;
68 [label="squared_error = 0.0\nsamples = 1\nvalue = 100.0"] ;
67 -> 68 ;
69 [label="Size <= 16.9\nsquared_error = 176.8\nsamples = 12\nvalue = 9.6"] ;
67 -> 69 ;
70 [label="Size <= 13.5\nsquared_error = 8.1\nsamples = 6\nvalue = 2.9"] ;
69 -> 70 ;
71 [label="Size <= 9.2\nsquared_error = 1.8\nsamples = 3\nvalue = 1.5"] ;
70 -> 71 ;
72 [label="squared_error = 0.0\nsamples = 1\nvalue = 5.0"] ;
71 -> 72 ;
73 [label="squared_error = 0.0\nsamples = 2\nvalue = 1.0"] ;
71 -> 73 ;
74 [label="Ad Supported <= 0.5\nsquared_error = 5.6\nsamples = 3\nvalue = 6.7"] ;
70 -> 74 ;
75 [label="squared_error = 0.0\nsamples = 1\nvalue = 10.0"] ;
74 -> 75 ;
76 [label="squared_error = 0.0\nsamples = 2\nvalue = 5.0"] ;
74 -> 76 ;
77 [label="Size <= 20.0\nsquared_error = 255.0\nsamples = 6\nvalue = 16.4"] ;
69 -> 77 ;
78 [label="Size <= 18.9\nsquared_error = 355.6\nsamples = 2\nvalue = 36.7"] ;
77 -> 78 ;
79 [label="squared_error = 0.0\nsamples = 1\nvalue = 10.0"] ;
78 -> 79 ;
80 [label="squared_error = 0.0\nsamples = 1\nvalue = 50.0"] ;
78 -> 80 ;
81 [label="Size <= 21.5\nsquared_error = 4.7\nsamples = 4\nvalue = 8.8"] ;
77 -> 81 ;
82 [label="squared_error = 0.0\nsamples = 1\nvalue = 10.0"] ;
81 -> 82 ;
83 [label="Minimum Android <= 4.1\nsquared_error = 6.0\nsamples = 3\nvalue = 8.0"] ;
81 -> 83 ;
84 [label="squared_error = 0.0\nsamples = 2\nvalue = 5.0"] ;
83 -> 84 ;
85 [label="squared_error = 0.0\nsamples = 1\nvalue = 10.0"] ;
83 -> 85 ;
86 [label="Category <= 4.5\nsquared_error = 5886.3\nsamples = 25\nvalue = 72.9"] ;
66 -> 86 ;
87 [label="Size <= 9.7\nsquared_error = 21812.7\nsamples = 4\nvalue = 125.2"] ;
86 -> 87 ;
88 [label="Size <= 8.5\nsquared_error = 2450.2\nsamples = 2\nvalue = 50.5"] ;
87 -> 88 ;
89 [label="squared_error = 0.0\nsamples = 1\nvalue = 100.0"] ;
88 -> 89 ;
90 [label="squared_error = 0.0\nsamples = 1\nvalue = 1.0"] ;
88 -> 90 ;
91 [label="Category <= 3.5\nsquared_error = 30000.0\nsamples = 2\nvalue = 200.0"] ;
87 -> 91 ;
92 [label="squared_error = 0.0\nsamples = 1\nvalue = 500.0"] ;
91 -> 92 ;
93 [label="squared_error = 0.0\nsamples = 1\nvalue = 100.0"] ;
91 -> 93 ;
94 [label="In App Purchases <= 0.5\nsquared_error = 1343.2\nsamples = 21\nvalue = 60.6"] ;
86 -> 94 ;
95 [label="Size <= 11.5\nsquared_error = 1291.2\nsamples = 19\nvalue = 64.2"] ;
94 -> 95 ;
96 [label="Size <= 7.8\nsquared_error = 1184.0\nsamples = 11\nvalue = 52.2"] ;
95 -> 96 ;
97 [label="Size <= 7.2\nsquared_error = 969.0\nsamples = 6\nvalue = 71.0"] ;
96 -> 97 ;
98 [label="squared_error = 300.0\nsamples = 2\nvalue = 40.0"] ;
97 -> 98 ;
99 [label="Category <= 6.5\nsquared_error = 347.2\nsamples = 4\nvalue = 91.7"] ;
97 -> 99 ;
100 [label="squared_error = 0.0\nsamples = 1\nvalue = 50.0"] ;
99 -> 100 ;
101 [label="squared_error = 0.0\nsamples = 3\nvalue = 100.0"] ;
99 -> 101 ;
102 [label="Size <= 9.0\nsquared_error = 460.9\nsamples = 5\nvalue = 28.8"] ;
96 -> 102 ;
103 [label="Free <= 0.5\nsquared_error = 18.8\nsamples = 2\nvalue = 7.5"] ;
102 -> 103 ;
104 [label="squared_error = 0.0\nsamples = 1\nvalue = 0.0"] ;
103 -> 104 ;
105 [label="squared_error = 0.0\nsamples = 1\nvalue = 10.0"] ;
103 -> 105 ;
106 [label="squared_error = 0.0\nsamples = 3\nvalue = 50.0"] ;
102 -> 106 ;
107 [label="Size <= 12.5\nsquared_error = 964.0\nsamples = 8\nvalue = 80.8"] ;
95 -> 107 ;
108 [label="squared_error = 0.0\nsamples = 1\nvalue = 100.0"] ;
107 -> 108 ;
109 [label="Ad Supported <= 0.5\nsquared_error = 1156.9\nsamples = 7\nvalue = 72.3"] ;
107 -> 109 ;
110 [label="Size <= 15.0\nsquared_error = 533.6\nsamples = 3\nvalue = 33.7"] ;
109 -> 110 ;
111 [label="squared_error = 0.0\nsamples = 1\nvalue = 50.0"] ;
110 -> 111 ;
112 [label="Category <= 6.0\nsquared_error = 600.2\nsamples = 2\nvalue = 25.5"] ;
110 -> 112 ;
113 [label="squared_error = 0.0\nsamples = 1\nvalue = 50.0"] ;
112 -> 113 ;
114 [label="squared_error = 0.0\nsamples = 1\nvalue = 1.0"] ;
112 -> 114 ;
115 [label="Size <= 19.0\nsquared_error = 347.2\nsamples = 4\nvalue = 91.7"] ;
109 -> 115 ;
116 [label="squared_error = 555.6\nsamples = 2\nvalue = 83.3"] ;
115 -> 116 ;
117 [label="squared_error = 0.0\nsamples = 2\nvalue = 100.0"] ;
115 -> 117 ;
118 [label="Size <= 14.6\nsquared_error = 355.6\nsamples = 2\nvalue = 23.3"] ;
94 -> 118 ;
119 [label="squared_error = 0.0\nsamples = 1\nvalue = 50.0"] ;
118 -> 119 ;
120 [label="squared_error = 0.0\nsamples = 1\nvalue = 10.0"] ;
118 -> 120 ;
121 [label="Category <= 6.0\nsquared_error = 58537.7\nsamples = 16\nvalue = 167.5"] ;
65 -> 121 ;
122 [label="Size <= 26.5\nsquared_error = 33109.1\nsamples = 15\nvalue = 135.5"] ;
121 -> 122 ;
123 [label="Minimum Android <= 4.0\nsquared_error = 45018.8\nsamples = 2\nvalue = 377.5"] ;
122 -> 123 ;
124 [label="squared_error = 0.0\nsamples = 1\nvalue = 500.0"] ;
123 -> 124 ;
125 [label="squared_error = 0.0\nsamples = 1\nvalue = 10.0"] ;
123 -> 125 ;
126 [label="Ad Supported <= 0.5\nsquared_error = 18359.7\nsamples = 13\nvalue = 91.5"] ;
122 -> 126 ;
127 [label="Size <= 29.5\nsquared_error = 45000.0\nsamples = 2\nvalue = 350.0"] ;
126 -> 127 ;
128 [label="squared_error = 0.0\nsamples = 1\nvalue = 50.0"] ;
127 -> 128 ;
129 [label="squared_error = 0.0\nsamples = 1\nvalue = 500.0"] ;
127 -> 129 ;
130 [label="Category <= 1.5\nsquared_error = 1936.5\nsamples = 11\nvalue = 50.7"] ;
126 -> 130 ;
131 [label="Size <= 73.5\nsquared_error = 1018.8\nsamples = 4\nvalue = 82.5"] ;
130 -> 131 ;
132 [label="Size <= 33.5\nsquared_error = 306.1\nsamples = 3\nvalue = 92.9"] ;
131 -> 132 ;
133 [label="squared_error = 0.0\nsamples = 1\nvalue = 100.0"] ;
132 -> 133 ;
134 [label="Size <= 41.5\nsquared_error = 555.6\nsamples = 2\nvalue = 83.3"] ;
132 -> 134 ;
135 [label="squared_error = 0.0\nsamples = 1\nvalue = 50.0"] ;
134 -> 135 ;
136 [label="squared_error = 0.0\nsamples = 1\nvalue = 100.0"] ;
134 -> 136 ;
137 [label="squared_error = 0.0\nsamples = 1\nvalue = 10.0"] ;
131 -> 137 ;
138 [label="Category <= 3.0\nsquared_error = 1332.4\nsamples = 7\nvalue = 27.5"] ;
130 -> 138 ;
139 [label="Size <= 32.5\nsquared_error = 888.2\nsamples = 6\nvalue = 20.3"] ;
138 -> 139 ;
140 [label="squared_error = 0.0\nsamples = 1\nvalue = 1.0"] ;
139 -> 140 ;
141 [label="Size <= 48.5\nsquared_error = 1040.8\nsamples = 5\nvalue = 28.6"] ;
139 -> 141 ;
142 [label="Minimum Android <= 3.2\nsquared_error = 625.0\nsamples = 2\nvalue = 75.0"] ;
141 -> 142 ;
143 [label="squared_error = 0.0\nsamples = 1\nvalue = 50.0"] ;
142 -> 143 ;
144 [label="squared_error = 0.0\nsamples = 1\nvalue = 100.0"] ;
142 -> 144 ;
145 [label="squared_error = 0.0\nsamples = 3\nvalue = 10.0"] ;
141 -> 145 ;
146 [label="squared_error = 0.0\nsamples = 1\nvalue = 100.0"] ;
138 -> 146 ;
147 [label="squared_error = 0.0\nsamples = 1\nvalue = 1000.0"] ;
121 -> 147 ;
148 [label="Size <= 13.5\nsquared_error = 117419158.9\nsamples = 88\nvalue = 2015.5"] ;
10 -> 148 ;
149 [label="Size <= 11.5\nsquared_error = 223821088.3\nsamples = 42\nvalue = 3578.6"] ;
148 -> 149 ;
150 [label="Size <= 4.9\nsquared_error = 99071882.4\nsamples = 40\nvalue = 2289.1"] ;
149 -> 150 ;
151 [label="Size <= 3.3\nsquared_error = 38975.1\nsamples = 13\nvalue = 174.9"] ;
150 -> 151 ;
152 [label="Size <= 2.5\nsquared_error = 15082.2\nsamples = 7\nvalue = 101.5"] ;
151 -> 152 ;
153 [label="Minimum Android <= 4.4\nsquared_error = 25586.8\nsamples = 4\nvalue = 150.8"] ;
152 -> 153 ;
154 [label="squared_error = 0.0\nsamples = 1\nvalue = 500.0"] ;
153 -> 154 ;
155 [label="Category <= 2.5\nsquared_error = 1444.0\nsamples = 3\nvalue = 81.0"] ;
153 -> 155 ;
156 [label="squared_error = 0.0\nsamples = 1\nvalue = 5.0"] ;
155 -> 156 ;
157 [label="squared_error = 0.0\nsamples = 2\nvalue = 100.0"] ;
155 -> 157 ;
158 [label="Size <= 3.0\nsquared_error = 2210.2\nsamples = 3\nvalue = 59.3"] ;
152 -> 158 ;
159 [label="squared_error = 0.0\nsamples = 1\nvalue = 5.0"] ;
158 -> 159 ;
160 [label="squared_error = 0.0\nsamples = 2\nvalue = 100.0"] ;
158 -> 160 ;
161 [label="Size <= 3.8\nsquared_error = 53938.2\nsamples = 6\nvalue = 270.3"] ;
151 -> 161 ;
162 [label="squared_error = 0.0\nsamples = 1\nvalue = 500.0"] ;
161 -> 162 ;
163 [label="Ad Supported <= 0.5\nsquared_error = 44751.3\nsamples = 5\nvalue = 171.9"] ;
161 -> 163 ;
164 [label="Size <= 4.6\nsquared_error = 35555.6\nsamples = 2\nvalue = 366.7"] ;
163 -> 164 ;
165 [label="squared_error = 0.0\nsamples = 1\nvalue = 100.0"] ;
164 -> 165 ;
166 [label="squared_error = 0.0\nsamples = 1\nvalue = 500.0"] ;
164 -> 166 ;
167 [label="Content Rating <= 1.5\nsquared_error = 1837.7\nsamples = 3\nvalue = 25.8"] ;
163 -> 167 ;
168 [label="squared_error = 0.0\nsamples = 1\nvalue = 1.0"] ;
167 -> 168 ;
169 [label="Size <= 4.7\nsquared_error = 2450.2\nsamples = 2\nvalue = 50.5"] ;
167 -> 169 ;
170 [label="squared_error = 0.0\nsamples = 1\nvalue = 100.0"] ;
169 -> 170 ;
171 [label="squared_error = 0.0\nsamples = 1\nvalue = 1.0"] ;
169 -> 171 ;
172 [label="Size <= 5.0\nsquared_error = 142473937.3\nsamples = 27\nvalue = 3281.4"] ;
150 -> 172 ;
173 [label="squared_error = 0.0\nsamples = 1\nvalue = 50000.0"] ;
172 -> 173 ;
174 [label="Category <= 4.5\nsquared_error = 51706761.4\nsamples = 26\nvalue = 1293.4"] ;
172 -> 174 ;
175 [label="Minimum Android <= 4.7\nsquared_error = 246506396.9\nsamples = 7\nvalue = 5592.3"] ;
174 -> 175 ;
176 [label="Ad Supported <= 0.5\nsquared_error = 622502500.0\nsamples = 2\nvalue = 25050.0"] ;
175 -> 176 ;
177 [label="squared_error = 0.0\nsamples = 1\nvalue = 50000.0"] ;
176 -> 177 ;
178 [label="squared_error = 0.0\nsamples = 1\nvalue = 100.0"] ;
176 -> 178 ;
179 [label="Ad Supported <= 0.5\nsquared_error = 1096.9\nsamples = 5\nvalue = 33.0"] ;
175 -> 179 ;
180 [label="Category <= 2.5\nsquared_error = 406.8\nsamples = 4\nvalue = 21.8"] ;
179 -> 180 ;
181 [label="Minimum Android <= 6.0\nsquared_error = 18.0\nsamples = 2\nvalue = 7.0"] ;
180 -> 181 ;
182 [label="squared_error = 0.0\nsamples = 1\nvalue = 1.0"] ;
181 -> 182 ;
183 [label="squared_error = 0.0\nsamples = 1\nvalue = 10.0"] ;
181 -> 183 ;
184 [label="Size <= 7.7\nsquared_error = 355.6\nsamples = 2\nvalue = 36.7"] ;
180 -> 184 ;
185 [label="squared_error = 0.0\nsamples = 1\nvalue = 10.0"] ;
184 -> 185 ;
186 [label="squared_error = 0.0\nsamples = 1\nvalue = 50.0"] ;
184 -> 186 ;
187 [label="squared_error = 0.0\nsamples = 1\nvalue = 100.0"] ;
179 -> 187 ;
188 [label="Size <= 5.5\nsquared_error = 156311.2\nsamples = 19\nvalue = 275.2"] ;
174 -> 188 ;
189 [label="Category <= 6.5\nsquared_error = 117123.6\nsamples = 4\nvalue = 722.3"] ;
188 -> 189 ;
190 [label="squared_error = 0.0\nsamples = 1\nvalue = 1.0"] ;
189 -> 190 ;
191 [label="Size <= 5.0\nsquared_error = 58593.8\nsamples = 3\nvalue = 812.5"] ;
189 -> 191 ;
192 [label="squared_error = 0.0\nsamples = 2\nvalue = 1000.0"] ;
191 -> 192 ;
193 [label="squared_error = 0.0\nsamples = 1\nvalue = 500.0"] ;
191 -> 193 ;
194 [label="Size <= 8.8\nsquared_error = 87183.8\nsamples = 15\nvalue = 136.5"] ;
188 -> 194 ;
195 [label="Content Rating <= 1.5\nsquared_error = 938.4\nsamples = 10\nvalue = 32.1"] ;
194 -> 195 ;
196 [label="Size <= 6.7\nsquared_error = 144.0\nsamples = 6\nvalue = 14.0"] ;
195 -> 196 ;
197 [label="Size <= 6.2\nsquared_error = 400.0\nsamples = 2\nvalue = 30.0"] ;
196 -> 197 ;
198 [label="squared_error = 0.0\nsamples = 1\nvalue = 10.0"] ;
197 -> 198 ;
199 [label="squared_error = 0.0\nsamples = 1\nvalue = 50.0"] ;
197 -> 199 ;
200 [label="squared_error = 0.0\nsamples = 4\nvalue = 10.0"] ;
196 -> 200 ;
201 [label="Ad Supported <= 0.5\nsquared_error = 941.8\nsamples = 4\nvalue = 57.9"] ;
195 -> 201 ;
202 [label="squared_error = 0.0\nsamples = 1\nvalue = 100.0"] ;
201 -> 202 ;
203 [label="Size <= 8.0\nsquared_error = 753.5\nsamples = 3\nvalue = 50.8"] ;
201 -> 203 ;
204 [label="Minimum Android <= 5.5\nsquared_error = 324.0\nsamples = 2\nvalue = 41.0"] ;
203 -> 204 ;
205 [label="squared_error = 0.0\nsamples = 1\nvalue = 5.0"] ;
204 -> 205 ;
206 [label="squared_error = 0.0\nsamples = 1\nvalue = 50.0"] ;
204 -> 206 ;
207 [label="squared_error = 0.0\nsamples = 1\nvalue = 100.0"] ;
203 -> 207 ;
208 [label="Size <= 9.6\nsquared_error = 172032.4\nsamples = 5\nvalue = 284.4"] ;
194 -> 208 ;
209 [label="squared_error = 0.0\nsamples = 1\nvalue = 1000.0"] ;
208 -> 209 ;
210 [label="Size <= 9.8\nsquared_error = 1794.5\nsamples = 4\nvalue = 45.9"] ;
208 -> 210 ;
211 [label="squared_error = 0.0\nsamples = 1\nvalue = 100.0"] ;
210 -> 211 ;
212 [label="Size <= 10.5\nsquared_error = 495.8\nsamples = 3\nvalue = 18.8"] ;
210 -> 212 ;
213 [label="Minimum Android <= 4.7\nsquared_error = 15.2\nsamples = 2\nvalue = 3.2"] ;
212 -> 213 ;
214 [label="squared_error = 0.0\nsamples = 1\nvalue = 10.0"] ;
213 -> 214 ;
215 [label="squared_error = 0.0\nsamples = 1\nvalue = 1.0"] ;
213 -> 215 ;
216 [label="squared_error = 0.0\nsamples = 1\nvalue = 50.0"] ;
212 -> 216 ;
217 [label="Category <= 3.5\nsquared_error = 2499750006.2\nsamples = 2\nvalue = 50002.5"] ;
149 -> 217 ;
218 [label="squared_error = 0.0\nsamples = 1\nvalue = 5.0"] ;
217 -> 218 ;
219 [label="squared_error = 0.0\nsamples = 1\nvalue = 100000.0"] ;
217 -> 219 ;
220 [label="Size <= 19.9\nsquared_error = 1320890.7\nsamples = 46\nvalue = 386.4"] ;
148 -> 220 ;
221 [label="Size <= 17.9\nsquared_error = 4484835.9\nsamples = 6\nvalue = 1341.2"] ;
220 -> 221 ;
222 [label="Size <= 15.5\nsquared_error = 30247.2\nsamples = 5\nvalue = 121.7"] ;
221 -> 222 ;
223 [label="squared_error = 0.0\nsamples = 1\nvalue = 500.0"] ;
222 -> 223 ;
224 [label="Size <= 16.5\nsquared_error = 1944.0\nsamples = 4\nvalue = 46.0"] ;
222 -> 224 ;
225 [label="squared_error = 0.0\nsamples = 3\nvalue = 10.0"] ;
224 -> 225 ;
226 [label="squared_error = 0.0\nsamples = 1\nvalue = 100.0"] ;
224 -> 226 ;
227 [label="squared_error = 0.0\nsamples = 1\nvalue = 5000.0"] ;
221 -> 227 ;
228 [label="Minimum Android <= 5.5\nsquared_error = 788647.9\nsamples = 40\nvalue = 265.2"] ;
220 -> 228 ;
229 [label="Minimum Android <= 4.7\nsquared_error = 57222.7\nsamples = 36\nvalue = 108.0"] ;
228 -> 229 ;
230 [label="In App Purchases <= 0.5\nsquared_error = 85420.4\nsamples = 24\nvalue = 152.7"] ;
229 -> 230 ;
231 [label="Size <= 49.5\nsquared_error = 104690.3\nsamples = 20\nvalue = 189.5"] ;
230 -> 231 ;
232 [label="Ad Supported <= 0.5\nsquared_error = 88219.1\nsamples = 17\nvalue = 166.9"] ;
231 -> 232 ;
233 [label="Size <= 35.0\nsquared_error = 143723.7\nsamples = 8\nvalue = 254.2"] ;
232 -> 233 ;
234 [label="Category <= 4.5\nsquared_error = 164089.5\nsamples = 5\nvalue = 337.2"] ;
233 -> 234 ;
235 [label="squared_error = 0.0\nsamples = 2\nvalue = 1000.0"] ;
234 -> 235 ;
236 [label="Category <= 6.0\nsquared_error = 49606.1\nsamples = 3\nvalue = 147.9"] ;
234 -> 236 ;
237 [label="Minimum Android <= 4.4\nsquared_error = 6.0\nsamples = 2\nvalue = 7.0"] ;
236 -> 237 ;
238 [label="squared_error = 0.0\nsamples = 1\nvalue = 10.0"] ;
237 -> 238 ;
239 [label="squared_error = 0.0\nsamples = 1\nvalue = 5.0"] ;
237 -> 239 ;
240 [label="squared_error = 0.0\nsamples = 1\nvalue = 500.0"] ;
236 -> 240 ;
241 [label="Category <= 2.0\nsquared_error = 13.6\nsamples = 3\nvalue = 5.3"] ;
233 -> 241 ;
242 [label="Minimum Android <= 4.4\nsquared_error = 4.0\nsamples = 2\nvalue = 3.0"] ;
241 -> 242 ;
243 [label="squared_error = 0.0\nsamples = 1\nvalue = 5.0"] ;
242 -> 243 ;
244 [label="squared_error = 0.0\nsamples = 1\nvalue = 1.0"] ;
242 -> 244 ;
245 [label="squared_error = 0.0\nsamples = 1\nvalue = 10.0"] ;
241 -> 245 ;
246 [label="Content Rating <= 2.0\nsquared_error = 17460.2\nsamples = 9\nvalue = 79.6"] ;
232 -> 246 ;
247 [label="Size <= 23.5\nsquared_error = 1355.6\nsamples = 6\nvalue = 38.3"] ;
246 -> 247 ;
248 [label="squared_error = 0.0\nsamples = 1\nvalue = 100.0"] ;
247 -> 248 ;
249 [label="Minimum Android <= 4.4\nsquared_error = 990.2\nsamples = 5\nvalue = 30.6"] ;
247 -> 249 ;
250 [label="squared_error = 0.0\nsamples = 1\nvalue = 100.0"] ;
249 -> 250 ;
251 [label="Category <= 1.5\nsquared_error = 345.9\nsamples = 4\nvalue = 20.7"] ;
249 -> 251 ;
252 [label="Size <= 36.5\nsquared_error = 5.6\nsamples = 2\nvalue = 8.3"] ;
251 -> 252 ;
253 [label="squared_error = 0.0\nsamples = 1\nvalue = 5.0"] ;
252 -> 253 ;
254 [label="squared_error = 0.0\nsamples = 1\nvalue = 10.0"] ;
252 -> 254 ;
255 [label="Content Rating <= 0.5\nsquared_error = 400.0\nsamples = 2\nvalue = 30.0"] ;
251 -> 255 ;
256 [label="squared_error = 0.0\nsamples = 1\nvalue = 50.0"] ;
255 -> 256 ;
257 [label="squared_error = 0.0\nsamples = 1\nvalue = 10.0"] ;
255 -> 257 ;
258 [label="Size <= 28.5\nsquared_error = 45355.6\nsamples = 3\nvalue = 203.3"] ;
246 -> 258 ;
259 [label="Category <= 4.5\nsquared_error = 2025.0\nsamples = 2\nvalue = 55.0"] ;
258 -> 259 ;
260 [label="squared_error = 0.0\nsamples = 1\nvalue = 10.0"] ;
259 -> 260 ;
261 [label="squared_error = 0.0\nsamples = 1\nvalue = 100.0"] ;
259 -> 261 ;
262 [label="squared_error = 0.0\nsamples = 1\nvalue = 500.0"] ;
258 -> 262 ;
263 [label="Category <= 1.5\nsquared_error = 199800.0\nsamples = 3\nvalue = 370.0"] ;
231 -> 263 ;
264 [label="squared_error = 0.0\nsamples = 1\nvalue = 1000.0"] ;
263 -> 264 ;
265 [label="Size <= 74.5\nsquared_error = 2025.0\nsamples = 2\nvalue = 55.0"] ;
263 -> 265 ;
266 [label="squared_error = 0.0\nsamples = 1\nvalue = 100.0"] ;
265 -> 266 ;
267 [label="squared_error = 0.0\nsamples = 1\nvalue = 10.0"] ;
265 -> 267 ;
268 [label="Size <= 33.5\nsquared_error = 454.7\nsamples = 4\nvalue = 28.8"] ;
230 -> 268 ;
269 [label="Minimum Android <= 4.4\nsquared_error = 6.2\nsamples = 2\nvalue = 7.5"] ;
268 -> 269 ;
270 [label="squared_error = 0.0\nsamples = 1\nvalue = 5.0"] ;
269 -> 270 ;
271 [label="squared_error = 0.0\nsamples = 1\nvalue = 10.0"] ;
269 -> 271 ;
272 [label="squared_error = 0.0\nsamples = 2\nvalue = 50.0"] ;
268 -> 272 ;
273 [label="Category <= 2.5\nsquared_error = 1315.1\nsamples = 12\nvalue = 33.3"] ;
229 -> 273 ;
274 [label="squared_error = 0.0\nsamples = 4\nvalue = 10.0"] ;
273 -> 274 ;
275 [label="Category <= 4.5\nsquared_error = 1536.2\nsamples = 8\nvalue = 42.7"] ;
273 -> 275 ;
276 [label="squared_error = 0.0\nsamples = 2\nvalue = 100.0"] ;
275 -> 276 ;
277 [label="Size <= 26.0\nsquared_error = 464.9\nsamples = 6\nvalue = 21.8"] ;
275 -> 277 ;
278 [label="squared_error = 0.0\nsamples = 1\nvalue = 50.0"] ;
277 -> 278 ;
279 [label="Size <= 57.0\nsquared_error = 352.5\nsamples = 5\nvalue = 15.6"] ;
277 -> 279 ;
280 [label="Category <= 6.0\nsquared_error = 17.3\nsamples = 4\nvalue = 5.7"] ;
279 -> 280 ;
281 [label="Ad Supported <= 0.5\nsquared_error = 6.2\nsamples = 2\nvalue = 2.5"] ;
280 -> 281 ;
282 [label="squared_error = 0.0\nsamples = 1\nvalue = 0.0"] ;
281 -> 282 ;
283 [label="squared_error = 0.0\nsamples = 1\nvalue = 5.0"] ;
281 -> 283 ;
284 [label="squared_error = 0.0\nsamples = 2\nvalue = 10.0"] ;
280 -> 284 ;
285 [label="squared_error = 0.0\nsamples = 1\nvalue = 50.0"] ;
279 -> 285 ;
286 [label="Category <= 5.0\nsquared_error = 4860563.3\nsamples = 4\nvalue = 1522.9"] ;
228 -> 286 ;
287 [label="Ad Supported <= 0.5\nsquared_error = 300.0\nsamples = 2\nvalue = 40.0"] ;
286 -> 287 ;
288 [label="squared_error = 0.0\nsamples = 1\nvalue = 10.0"] ;
287 -> 288 ;
289 [label="squared_error = 0.0\nsamples = 1\nvalue = 50.0"] ;
287 -> 289 ;
290 [label="Minimum Android <= 6.5\nsquared_error = 4500000.0\nsamples = 2\nvalue = 3500.0"] ;
286 -> 290 ;
291 [label="squared_error = 0.0\nsamples = 1\nvalue = 5000.0"] ;
290 -> 291 ;
292 [label="squared_error = 0.0\nsamples = 1\nvalue = 500.0"] ;
290 -> 292 ;
293 [label="Minimum Android <= 5.5\nsquared_error = 230918.3\nsamples = 163\nvalue = 174.3"] ;
9 -> 293 ;
294 [label="Content Rating <= 2.5\nsquared_error = 60261.8\nsamples = 151\nvalue = 141.2"] ;
293 -> 294 ;
295 [label="Minimum Android <= 1.8\nsquared_error = 50083.2\nsamples = 142\nvalue = 127.9"] ;
294 -> 295 ;
296 [label="squared_error = 0.0\nsamples = 1\nvalue = 500.0"] ;
295 -> 296 ;
297 [label="Size <= 25.5\nsquared_error = 48518.6\nsamples = 141\nvalue = 121.5"] ;
295 -> 297 ;
298 [label="Size <= 2.6\nsquared_error = 33727.3\nsamples = 113\nvalue = 96.5"] ;
297 -> 298 ;
299 [label="Size <= 2.4\nsquared_error = 1373.4\nsamples = 19\nvalue = 33.2"] ;
298 -> 299 ;
300 [label="Minimum Android <= 4.2\nsquared_error = 1083.7\nsamples = 16\nvalue = 27.9"] ;
299 -> 300 ;
301 [label="Minimum Android <= 4.0\nsquared_error = 1031.4\nsamples = 8\nvalue = 38.8"] ;
300 -> 301 ;
302 [label="Size <= 1.8\nsquared_error = 315.2\nsamples = 5\nvalue = 19.4"] ;
301 -> 302 ;
303 [label="Minimum Android <= 3.1\nsquared_error = 3.5\nsamples = 4\nvalue = 9.2"] ;
302 -> 303 ;
304 [label="squared_error = 0.0\nsamples = 1\nvalue = 5.0"] ;
303 -> 304 ;
305 [label="squared_error = 0.0\nsamples = 3\nvalue = 10.0"] ;
303 -> 305 ;
306 [label="squared_error = 0.0\nsamples = 1\nvalue = 50.0"] ;
302 -> 306 ;
307 [label="Size <= 1.6\nsquared_error = 600.0\nsamples = 3\nvalue = 70.0"] ;
301 -> 307 ;
308 [label="squared_error = 0.0\nsamples = 2\nvalue = 100.0"] ;
307 -> 308 ;
309 [label="squared_error = 0.0\nsamples = 1\nvalue = 50.0"] ;
307 -> 309 ;
310 [label="Size <= 1.8\nsquared_error = 950.7\nsamples = 8\nvalue = 19.1"] ;
300 -> 310 ;
311 [label="Size <= 1.4\nsquared_error = 1944.0\nsamples = 3\nvalue = 46.0"] ;
310 -> 311 ;
312 [label="squared_error = 0.0\nsamples = 1\nvalue = 10.0"] ;
311 -> 312 ;
313 [label="squared_error = 2025.0\nsamples = 2\nvalue = 55.0"] ;
311 -> 313 ;
314 [label="Size <= 2.1\nsquared_error = 19.4\nsamples = 5\nvalue = 6.8"] ;
310 -> 314 ;
315 [label="Minimum Android <= 4.7\nsquared_error = 4.7\nsamples = 2\nvalue = 1.2"] ;
314 -> 315 ;
316 [label="squared_error = 0.0\nsamples = 1\nvalue = 5.0"] ;
315 -> 316 ;
317 [label="squared_error = 0.0\nsamples = 1\nvalue = 0.0"] ;
315 -> 317 ;
318 [label="squared_error = 0.0\nsamples = 3\nvalue = 10.0"] ;
314 -> 318 ;
319 [label="Ad Supported <= 0.5\nsquared_error = 1944.0\nsamples = 3\nvalue = 64.0"] ;
299 -> 319 ;
320 [label="squared_error = 0.0\nsamples = 2\nvalue = 100.0"] ;
319 -> 320 ;
321 [label="squared_error = 0.0\nsamples = 1\nvalue = 10.0"] ;
319 -> 321 ;
322 [label="Size <= 3.1\nsquared_error = 39907.3\nsamples = 94\nvalue = 110.8"] ;
298 -> 322 ;
323 [label="Size <= 2.9\nsquared_error = 149400.0\nsamples = 4\nvalue = 280.0"] ;
322 -> 323 ;
324 [label="Minimum Android <= 4.2\nsquared_error = 1653.1\nsamples = 3\nvalue = 74.3"] ;
323 -> 324 ;
325 [label="squared_error = 0.0\nsamples = 1\nvalue = 100.0"] ;
324 -> 325 ;
326 [label="Size <= 2.8\nsquared_error = 2025.0\nsamples = 2\nvalue = 55.0"] ;
324 -> 326 ;
327 [label="squared_error = 0.0\nsamples = 1\nvalue = 100.0"] ;
326 -> 327 ;
328 [label="squared_error = 0.0\nsamples = 1\nvalue = 10.0"] ;
326 -> 328 ;
329 [label="squared_error = 0.0\nsamples = 1\nvalue = 1000.0"] ;
323 -> 329 ;
330 [label="Size <= 6.8\nsquared_error = 31037.6\nsamples = 90\nvalue = 100.0"] ;
322 -> 330 ;
331 [label="Minimum Android <= 4.7\nsquared_error = 5286.8\nsamples = 37\nvalue = 62.5"] ;
330 -> 331 ;
332 [label="Size <= 4.0\nsquared_error = 1748.4\nsamples = 32\nvalue = 55.5"] ;
331 -> 332 ;
333 [label="Minimum Android <= 4.4\nsquared_error = 810.7\nsamples = 9\nvalue = 86.7"] ;
332 -> 333 ;
334 [label="Size <= 3.6\nsquared_error = 1231.4\nsamples = 7\nvalue = 75.1"] ;
333 -> 334 ;
335 [label="squared_error = 0.0\nsamples = 3\nvalue = 100.0"] ;
334 -> 335 ;
336 [label="Size <= 3.9\nsquared_error = 1376.2\nsamples = 4\nvalue = 60.2"] ;
334 -> 336 ;
337 [label="Minimum Android <= 4.1\nsquared_error = 533.6\nsamples = 3\nvalue = 33.7"] ;
336 -> 337 ;
338 [label="squared_error = 0.0\nsamples = 1\nvalue = 50.0"] ;
337 -> 338 ;
339 [label="Minimum Android <= 4.2\nsquared_error = 600.2\nsamples = 2\nvalue = 25.5"] ;
337 -> 339 ;
340 [label="squared_error = 0.0\nsamples = 1\nvalue = 1.0"] ;
339 -> 340 ;
341 [label="squared_error = 0.0\nsamples = 1\nvalue = 50.0"] ;
339 -> 341 ;
342 [label="squared_error = 0.0\nsamples = 1\nvalue = 100.0"] ;
336 -> 342 ;
343 [label="squared_error = 0.0\nsamples = 2\nvalue = 100.0"] ;
333 -> 343 ;
344 [label="Size <= 5.0\nsquared_error = 1527.9\nsamples = 23\nvalue = 41.2"] ;
332 -> 344 ;
345 [label="Size <= 4.2\nsquared_error = 859.9\nsamples = 8\nvalue = 21.1"] ;
344 -> 345 ;
346 [label="Minimum Android <= 4.0\nsquared_error = 1355.6\nsamples = 3\nvalue = 53.3"] ;
345 -> 346 ;
347 [label="Size <= 4.0\nsquared_error = 400.0\nsamples = 2\nvalue = 30.0"] ;
346 -> 347 ;
348 [label="squared_error = 0.0\nsamples = 1\nvalue = 10.0"] ;
347 -> 348 ;
349 [label="squared_error = 0.0\nsamples = 1\nvalue = 50.0"] ;
347 -> 349 ;
350 [label="squared_error = 0.0\nsamples = 1\nvalue = 100.0"] ;
346 -> 350 ;
351 [label="Minimum Android <= 4.0\nsquared_error = 11.3\nsamples = 5\nvalue = 7.3"] ;
345 -> 351 ;
352 [label="squared_error = 0.0\nsamples = 1\nvalue = 1.0"] ;
351 -> 352 ;
353 [label="Minimum Android <= 4.2\nsquared_error = 5.6\nsamples = 4\nvalue = 8.3"] ;
351 -> 353 ;
354 [label="squared_error = 0.0\nsamples = 2\nvalue = 10.0"] ;
353 -> 354 ;
355 [label="squared_error = 0.0\nsamples = 2\nvalue = 5.0"] ;
353 -> 355 ;
356 [label="Size <= 5.5\nsquared_error = 1565.2\nsamples = 15\nvalue = 50.0"] ;
344 -> 356 ;
357 [label="squared_error = 0.0\nsamples = 4\nvalue = 100.0"] ;
356 -> 357 ;
358 [label="Ad Supported <= 0.5\nsquared_error = 1112.7\nsamples = 11\nvalue = 36.1"] ;
356 -> 358 ;
359 [label="Minimum Android <= 4.4\nsquared_error = 1171.6\nsamples = 10\nvalue = 41.3"] ;
358 -> 359 ;
360 [label="Minimum Android <= 4.2\nsquared_error = 898.8\nsamples = 6\nvalue = 28.9"] ;
359 -> 360 ;
361 [label="Minimum Android <= 4.1\nsquared_error = 1080.6\nsamples = 5\nvalue = 38.3"] ;
360 -> 361 ;
362 [label="squared_error = 1518.8\nsamples = 3\nvalue = 32.5"] ;
361 -> 362 ;
363 [label="squared_error = 0.0\nsamples = 2\nvalue = 50.0"] ;
361 -> 363 ;
364 [label="squared_error = 0.0\nsamples = 1\nvalue = 10.0"] ;
360 -> 364 ;
365 [label="Size <= 6.5\nsquared_error = 1000.0\nsamples = 4\nvalue = 60.0"] ;
359 -> 365 ;
366 [label="Size <= 6.2\nsquared_error = 625.0\nsamples = 2\nvalue = 75.0"] ;
365 -> 366 ;
367 [label="squared_error = 0.0\nsamples = 1\nvalue = 50.0"] ;
366 -> 367 ;
368 [label="squared_error = 0.0\nsamples = 1\nvalue = 100.0"] ;
366 -> 368 ;
369 [label="Size <= 6.6\nsquared_error = 400.0\nsamples = 2\nvalue = 30.0"] ;
365 -> 369 ;
370 [label="squared_error = 0.0\nsamples = 1\nvalue = 10.0"] ;
369 -> 370 ;
371 [label="squared_error = 0.0\nsamples = 1\nvalue = 50.0"] ;
369 -> 371 ;
372 [label="squared_error = 0.0\nsamples = 1\nvalue = 10.0"] ;
358 -> 372 ;
373 [label="Minimum Android <= 5.0\nsquared_error = 29986.8\nsamples = 5\nvalue = 119.2"] ;
331 -> 373 ;
374 [label="Size <= 5.7\nsquared_error = 45355.6\nsamples = 3\nvalue = 203.3"] ;
373 -> 374 ;
375 [label="squared_error = 2025.0\nsamples = 2\nvalue = 55.0"] ;
374 -> 375 ;
376 [label="squared_error = 0.0\nsamples = 1\nvalue = 500.0"] ;
374 -> 376 ;
377 [label="Size <= 4.8\nsquared_error = 450.0\nsamples = 2\nvalue = 35.0"] ;
373 -> 377 ;
378 [label="squared_error = 0.0\nsamples = 1\nvalue = 5.0"] ;
377 -> 378 ;
379 [label="squared_error = 0.0\nsamples = 1\nvalue = 50.0"] ;
377 -> 379 ;
380 [label="Size <= 7.2\nsquared_error = 45445.8\nsamples = 53\nvalue = 123.1"] ;
330 -> 380 ;
381 [label="squared_error = 0.0\nsamples = 1\nvalue = 1000.0"] ;
380 -> 381 ;
382 [label="Size <= 15.5\nsquared_error = 37027.4\nsamples = 52\nvalue = 113.0"] ;
380 -> 382 ;
383 [label="Size <= 12.5\nsquared_error = 52928.5\nsamples = 36\nvalue = 148.2"] ;
382 -> 383 ;
384 [label="Size <= 8.5\nsquared_error = 30148.4\nsamples = 28\nvalue = 92.4"] ;
383 -> 384 ;
385 [label="Size <= 8.1\nsquared_error = 90771.9\nsamples = 8\nvalue = 220.9"] ;
384 -> 385 ;
386 [label="Size <= 7.5\nsquared_error = 33081.0\nsamples = 7\nvalue = 143.0"] ;
385 -> 386 ;
387 [label="Size <= 7.5\nsquared_error = 45400.0\nsamples = 3\nvalue = 240.0"] ;
386 -> 387 ;
388 [label="squared_error = 0.0\nsamples = 1\nvalue = 50.0"] ;
387 -> 388 ;
389 [label="Minimum Android <= 4.7\nsquared_error = 35555.6\nsamples = 2\nvalue = 366.7"] ;
387 -> 389 ;
390 [label="squared_error = 0.0\nsamples = 1\nvalue = 500.0"] ;
389 -> 390 ;
391 [label="squared_error = 0.0\nsamples = 1\nvalue = 100.0"] ;
389 -> 391 ;
392 [label="Size <= 7.7\nsquared_error = 1944.0\nsamples = 4\nvalue = 46.0"] ;
386 -> 392 ;
393 [label="squared_error = 0.0\nsamples = 1\nvalue = 10.0"] ;
392 -> 393 ;
394 [label="Minimum Android <= 4.0\nsquared_error = 1800.0\nsamples = 3\nvalue = 70.0"] ;
392 -> 394 ;
395 [label="squared_error = 0.0\nsamples = 1\nvalue = 100.0"] ;
394 -> 395 ;
396 [label="Minimum Android <= 4.5\nsquared_error = 2025.0\nsamples = 2\nvalue = 55.0"] ;
394 -> 396 ;
397 [label="squared_error = 0.0\nsamples = 1\nvalue = 10.0"] ;
396 -> 397 ;
398 [label="squared_error = 0.0\nsamples = 1\nvalue = 100.0"] ;
396 -> 398 ;
399 [label="squared_error = 0.0\nsamples = 1\nvalue = 1000.0"] ;
385 -> 399 ;
400 [label="Minimum Android <= 4.0\nsquared_error = 1683.0\nsamples = 20\nvalue = 48.2"] ;
384 -> 400 ;
401 [label="Size <= 9.7\nsquared_error = 510.2\nsamples = 3\nvalue = 85.7"] ;
400 -> 401 ;
402 [label="squared_error = 0.0\nsamples = 1\nvalue = 100.0"] ;
401 -> 402 ;
403 [label="Minimum Android <= 2.2\nsquared_error = 625.0\nsamples = 2\nvalue = 75.0"] ;
401 -> 403 ;
404 [label="squared_error = 0.0\nsamples = 1\nvalue = 100.0"] ;
403 -> 404 ;
405 [label="squared_error = 0.0\nsamples = 1\nvalue = 50.0"] ;
403 -> 405 ;
406 [label="Minimum Android <= 4.4\nsquared_error = 1508.3\nsamples = 17\nvalue = 37.8"] ;
400 -> 406 ;
407 [label="Size <= 11.5\nsquared_error = 855.2\nsamples = 8\nvalue = 20.8"] ;
406 -> 407 ;
408 [label="Size <= 9.3\nsquared_error = 333.0\nsamples = 6\nvalue = 14.4"] ;
407 -> 408 ;
409 [label="squared_error = 0.0\nsamples = 1\nvalue = 50.0"] ;
408 -> 409 ;
410 [label="Minimum Android <= 4.2\nsquared_error = 20.2\nsamples = 5\nvalue = 5.5"] ;
408 -> 410 ;
411 [label="Size <= 10.5\nsquared_error = 18.0\nsamples = 4\nvalue = 4.0"] ;
410 -> 411 ;
412 [label="squared_error = 0.0\nsamples = 2\nvalue = 10.0"] ;
411 -> 412 ;
413 [label="squared_error = 0.0\nsamples = 2\nvalue = 1.0"] ;
411 -> 413 ;
414 [label="squared_error = 0.0\nsamples = 1\nvalue = 10.0"] ;
410 -> 414 ;
415 [label="squared_error = 2256.2\nsamples = 2\nvalue = 52.5"] ;
407 -> 415 ;
416 [label="Size <= 8.8\nsquared_error = 1597.6\nsamples = 9\nvalue = 53.5"] ;
406 -> 416 ;
417 [label="squared_error = 0.0\nsamples = 1\nvalue = 10.0"] ;
416 -> 417 ;
418 [label="Size <= 11.5\nsquared_error = 1340.2\nsamples = 8\nvalue = 66.5"] ;
416 -> 418 ;
419 [label="Size <= 9.7\nsquared_error = 1217.3\nsamples = 6\nvalue = 79.3"] ;
418 -> 419 ;
420 [label="Ad Supported <= 0.5\nsquared_error = 1505.6\nsamples = 3\nvalue = 51.7"] ;
419 -> 420 ;
421 [label="squared_error = 0.0\nsamples = 1\nvalue = 50.0"] ;
420 -> 421 ;
422 [label="squared_error = 2256.2\nsamples = 2\nvalue = 52.5"] ;
420 -> 422 ;
423 [label="squared_error = 0.0\nsamples = 3\nvalue = 100.0"] ;
419 -> 423 ;
424 [label="Minimum Android <= 4.8\nsquared_error = 355.6\nsamples = 2\nvalue = 36.7"] ;
418 -> 424 ;
425 [label="squared_error = 0.0\nsamples = 1\nvalue = 50.0"] ;
424 -> 425 ;
426 [label="squared_error = 0.0\nsamples = 1\nvalue = 10.0"] ;
424 -> 426 ;
427 [label="Minimum Android <= 4.4\nsquared_error = 83948.5\nsamples = 8\nvalue = 332.7"] ;
383 -> 427 ;
428 [label="squared_error = 0.0\nsamples = 2\nvalue = 500.0"] ;
427 -> 428 ;
429 [label="Minimum Android <= 4.7\nsquared_error = 103288.9\nsamples = 6\nvalue = 258.3"] ;
427 -> 429 ;
430 [label="Size <= 13.5\nsquared_error = 40441.8\nsamples = 4\nvalue = 187.9"] ;
429 -> 430 ;
431 [label="squared_error = 0.0\nsamples = 1\nvalue = 100.0"] ;
430 -> 431 ;
432 [label="squared_error = 60642.2\nsamples = 3\nvalue = 253.8"] ;
430 -> 432 ;
433 [label="Ad Supported <= 0.5\nsquared_error = 245025.0\nsamples = 2\nvalue = 505.0"] ;
429 -> 433 ;
434 [label="squared_error = 0.0\nsamples = 1\nvalue = 1000.0"] ;
433 -> 434 ;
435 [label="squared_error = 0.0\nsamples = 1\nvalue = 10.0"] ;
433 -> 435 ;
436 [label="Size <= 24.5\nsquared_error = 2018.4\nsamples = 16\nvalue = 49.4"] ;
382 -> 436 ;
437 [label="Minimum Android <= 4.2\nsquared_error = 1642.0\nsamples = 14\nvalue = 34.6"] ;
436 -> 437 ;
438 [label="Size <= 17.5\nsquared_error = 2306.2\nsamples = 5\nvalue = 60.8"] ;
437 -> 438 ;
439 [label="squared_error = 0.0\nsamples = 1\nvalue = 1.0"] ;
438 -> 439 ;
440 [label="Minimum Android <= 4.0\nsquared_error = 1105.1\nsamples = 4\nvalue = 86.4"] ;
438 -> 440 ;
441 [label="squared_error = 0.0\nsamples = 1\nvalue = 5.0"] ;
440 -> 441 ;
442 [label="squared_error = 0.0\nsamples = 3\nvalue = 100.0"] ;
440 -> 442 ;
443 [label="Size <= 19.5\nsquared_error = 328.6\nsamples = 9\nvalue = 15.9"] ;
437 -> 443 ;
444 [label="Size <= 18.9\nsquared_error = 300.0\nsamples = 3\nvalue = 40.0"] ;
443 -> 444 ;
445 [label="Minimum Android <= 4.7\nsquared_error = 400.0\nsamples = 2\nvalue = 30.0"] ;
444 -> 445 ;
446 [label="squared_error = 0.0\nsamples = 1\nvalue = 50.0"] ;
445 -> 446 ;
447 [label="squared_error = 0.0\nsamples = 1\nvalue = 10.0"] ;
445 -> 447 ;
448 [label="squared_error = 0.0\nsamples = 1\nvalue = 50.0"] ;
444 -> 448 ;
449 [label="Minimum Android <= 4.7\nsquared_error = 15.6\nsamples = 6\nvalue = 6.3"] ;
443 -> 449 ;
450 [label="Size <= 22.0\nsquared_error = 4.0\nsamples = 3\nvalue = 9.0"] ;
449 -> 450 ;
451 [label="squared_error = 0.0\nsamples = 2\nvalue = 10.0"] ;
450 -> 451 ;
452 [label="squared_error = 0.0\nsamples = 1\nvalue = 5.0"] ;
450 -> 452 ;
453 [label="Size <= 21.0\nsquared_error = 12.6\nsamples = 3\nvalue = 3.6"] ;
449 -> 453 ;
454 [label="squared_error = 0.0\nsamples = 1\nvalue = 1.0"] ;
453 -> 454 ;
455 [label="Size <= 23.0\nsquared_error = 6.2\nsamples = 2\nvalue = 7.5"] ;
453 -> 455 ;
456 [label="squared_error = 0.0\nsamples = 1\nvalue = 10.0"] ;
455 -> 456 ;
457 [label="squared_error = 0.0\nsamples = 1\nvalue = 5.0"] ;
455 -> 457 ;
458 [label="squared_error = 0.0\nsamples = 2\nvalue = 100.0"] ;
436 -> 458 ;
459 [label="Size <= 35.5\nsquared_error = 94615.3\nsamples = 28\nvalue = 219.8"] ;
297 -> 459 ;
460 [label="Minimum Android <= 4.6\nsquared_error = 140380.0\nsamples = 10\nvalue = 336.4"] ;
459 -> 460 ;
461 [label="Minimum Android <= 4.0\nsquared_error = 36583.7\nsamples = 4\nvalue = 201.4"] ;
460 -> 461 ;
462 [label="squared_error = 0.0\nsamples = 1\nvalue = 500.0"] ;
461 -> 462 ;
463 [label="Size <= 31.5\nsquared_error = 1296.0\nsamples = 3\nvalue = 82.0"] ;
461 -> 463 ;
464 [label="squared_error = 0.0\nsamples = 2\nvalue = 100.0"] ;
463 -> 464 ;
465 [label="squared_error = 0.0\nsamples = 1\nvalue = 10.0"] ;
463 -> 465 ;
466 [label="Minimum Android <= 5.0\nsquared_error = 181190.3\nsamples = 6\nvalue = 409.0"] ;
460 -> 466 ;
467 [label="Size <= 27.0\nsquared_error = 181917.2\nsamples = 5\nvalue = 442.2"] ;
466 -> 467 ;
468 [label="squared_error = 214174.6\nsamples = 3\nvalue = 538.1"] ;
467 -> 468 ;
469 [label="Ad Supported <= 0.5\nsquared_error = 62250.2\nsamples = 2\nvalue = 250.5"] ;
467 -> 469 ;
470 [label="squared_error = 0.0\nsamples = 1\nvalue = 1.0"] ;
469 -> 470 ;
471 [label="squared_error = 0.0\nsamples = 1\nvalue = 500.0"] ;
469 -> 471 ;
472 [label="squared_error = 0.0\nsamples = 1\nvalue = 10.0"] ;
466 -> 472 ;
473 [label="Size <= 95.0\nsquared_error = 43208.9\nsamples = 18\nvalue = 133.5"] ;
459 -> 473 ;
474 [label="Minimum Android <= 4.7\nsquared_error = 15389.5\nsamples = 15\nvalue = 107.7"] ;
473 -> 474 ;
475 [label="Size <= 51.5\nsquared_error = 27932.2\nsamples = 8\nvalue = 170.5"] ;
474 -> 475 ;
476 [label="Minimum Android <= 4.4\nsquared_error = 1253.5\nsamples = 4\nvalue = 84.2"] ;
475 -> 476 ;
477 [label="squared_error = 0.0\nsamples = 3\nvalue = 100.0"] ;
476 -> 477 ;
478 [label="squared_error = 0.0\nsamples = 1\nvalue = 5.0"] ;
476 -> 478 ;
479 [label="Size <= 57.5\nsquared_error = 40000.0\nsamples = 4\nvalue = 300.0"] ;
475 -> 479 ;
480 [label="squared_error = 0.0\nsamples = 1\nvalue = 500.0"] ;
479 -> 480 ;
481 [label="Size <= 65.0\nsquared_error = 35555.6\nsamples = 3\nvalue = 233.3"] ;
479 -> 481 ;
482 [label="squared_error = 0.0\nsamples = 1\nvalue = 100.0"] ;
481 -> 482 ;
483 [label="Size <= 71.5\nsquared_error = 40000.0\nsamples = 2\nvalue = 300.0"] ;
481 -> 483 ;
484 [label="squared_error = 0.0\nsamples = 1\nvalue = 500.0"] ;
483 -> 484 ;
485 [label="squared_error = 0.0\nsamples = 1\nvalue = 100.0"] ;
483 -> 485 ;
486 [label="Size <= 40.5\nsquared_error = 1602.6\nsamples = 7\nvalue = 62.9"] ;
474 -> 486 ;
487 [label="squared_error = 0.0\nsamples = 1\nvalue = 5.0"] ;
486 -> 487 ;
488 [label="Size <= 49.0\nsquared_error = 1218.8\nsamples = 6\nvalue = 72.5"] ;
486 -> 488 ;
489 [label="Size <= 45.5\nsquared_error = 1624.0\nsamples = 3\nvalue = 54.0"] ;
488 -> 489 ;
490 [label="squared_error = 0.0\nsamples = 1\nvalue = 100.0"] ;
489 -> 490 ;
491 [label="Minimum Android <= 5.0\nsquared_error = 355.6\nsamples = 2\nvalue = 23.3"] ;
489 -> 491 ;
492 [label="squared_error = 0.0\nsamples = 1\nvalue = 10.0"] ;
491 -> 492 ;
493 [label="squared_error = 0.0\nsamples = 1\nvalue = 50.0"] ;
491 -> 493 ;
494 [label="Size <= 71.0\nsquared_error = 510.2\nsamples = 3\nvalue = 85.7"] ;
488 -> 494 ;
495 [label="squared_error = 0.0\nsamples = 2\nvalue = 100.0"] ;
494 -> 495 ;
496 [label="squared_error = 0.0\nsamples = 1\nvalue = 50.0"] ;
494 -> 496 ;
497 [label="Size <= 108.0\nsquared_error = 217800.0\nsamples = 3\nvalue = 340.0"] ;
473 -> 497 ;
498 [label="squared_error = 0.0\nsamples = 1\nvalue = 1000.0"] ;
497 -> 498 ;
499 [label="squared_error = 0.0\nsamples = 2\nvalue = 10.0"] ;
497 -> 499 ;
500 [label="Minimum Android <= 4.2\nsquared_error = 169505.9\nsamples = 9\nvalue = 336.9"] ;
294 -> 500 ;
501 [label="Size <= 8.4\nsquared_error = 220053.1\nsamples = 4\nvalue = 594.3"] ;
500 -> 501 ;
502 [label="Size <= 3.9\nsquared_error = 129600.0\nsamples = 2\nvalue = 820.0"] ;
501 -> 502 ;
503 [label="squared_error = 0.0\nsamples = 1\nvalue = 100.0"] ;
502 -> 503 ;
504 [label="squared_error = 0.0\nsamples = 1\nvalue = 1000.0"] ;
502 -> 504 ;
505 [label="Size <= 12.5\nsquared_error = 400.0\nsamples = 2\nvalue = 30.0"] ;
501 -> 505 ;
506 [label="squared_error = 0.0\nsamples = 1\nvalue = 10.0"] ;
505 -> 506 ;
507 [label="squared_error = 0.0\nsamples = 1\nvalue = 50.0"] ;
505 -> 507 ;
508 [label="Size <= 61.5\nsquared_error = 38572.2\nsamples = 5\nvalue = 136.7"] ;
500 -> 508 ;
509 [label="Size <= 19.8\nsquared_error = 1374.0\nsamples = 3\nvalue = 26.0"] ;
508 -> 509 ;
510 [label="Size <= 6.9\nsquared_error = 6.2\nsamples = 2\nvalue = 7.5"] ;
509 -> 510 ;
511 [label="squared_error = 0.0\nsamples = 1\nvalue = 5.0"] ;
510 -> 511 ;
512 [label="squared_error = 0.0\nsamples = 1\nvalue = 10.0"] ;
510 -> 512 ;
513 [label="squared_error = 0.0\nsamples = 1\nvalue = 100.0"] ;
509 -> 513 ;
514 [label="Size <= 99.5\nsquared_error = 50625.0\nsamples = 2\nvalue = 275.0"] ;
508 -> 514 ;
515 [label="squared_error = 0.0\nsamples = 1\nvalue = 500.0"] ;
514 -> 515 ;
516 [label="squared_error = 0.0\nsamples = 1\nvalue = 50.0"] ;
514 -> 516 ;
517 [label="Size <= 43.0\nsquared_error = 2389637.9\nsamples = 12\nvalue = 638.1"] ;
293 -> 517 ;
518 [label="Size <= 37.5\nsquared_error = 16283.1\nsamples = 8\nvalue = 114.2"] ;
517 -> 518 ;
519 [label="Size <= 16.0\nsquared_error = 1537.2\nsamples = 7\nvalue = 75.6"] ;
518 -> 519 ;
520 [label="Size <= 4.3\nsquared_error = 1610.5\nsamples = 4\nvalue = 39.0"] ;
519 -> 520 ;
521 [label="Size <= 2.6\nsquared_error = 625.0\nsamples = 2\nvalue = 75.0"] ;
520 -> 521 ;
522 [label="squared_error = 0.0\nsamples = 1\nvalue = 50.0"] ;
521 -> 522 ;
523 [label="squared_error = 0.0\nsamples = 1\nvalue = 100.0"] ;
521 -> 523 ;
524 [label="Minimum Android <= 6.5\nsquared_error = 4.0\nsamples = 2\nvalue = 3.0"] ;
520 -> 524 ;
525 [label="squared_error = 0.0\nsamples = 1\nvalue = 1.0"] ;
524 -> 525 ;
526 [label="squared_error = 0.0\nsamples = 1\nvalue = 5.0"] ;
524 -> 526 ;
527 [label="squared_error = 0.0\nsamples = 3\nvalue = 100.0"] ;
519 -> 527 ;
528 [label="squared_error = 0.0\nsamples = 1\nvalue = 500.0"] ;
518 -> 528 ;
529 [label="Size <= 49.5\nsquared_error = 5009983.7\nsamples = 4\nvalue = 1461.4"] ;
517 -> 529 ;
530 [label="squared_error = 0.0\nsamples = 1\nvalue = 5000.0"] ;
529 -> 530 ;
531 [label="Size <= 96.0\nsquared_error = 1944.0\nsamples = 3\nvalue = 46.0"] ;
529 -> 531 ;
532 [label="squared_error = 0.0\nsamples = 2\nvalue = 100.0"] ;
531 -> 532 ;
533 [label="squared_error = 0.0\nsamples = 1\nvalue = 10.0"] ;
531 -> 533 ;
534 [label="Content Rating <= 0.5\nsquared_error = 416173736.5\nsamples = 34\nvalue = 5008.3"] ;
8 -> 534 ;
535 [label="Category <= 10.0\nsquared_error = 52991392.4\nsamples = 31\nvalue = 1202.3"] ;
534 -> 535 ;
536 [label="Size <= 6.5\nsquared_error = 622502500.0\nsamples = 2\nvalue = 25050.0"] ;
535 -> 536 ;
537 [label="squared_error = 0.0\nsamples = 1\nvalue = 50000.0"] ;
536 -> 537 ;
538 [label="squared_error = 0.0\nsamples = 1\nvalue = 100.0"] ;
536 -> 538 ;
539 [label="Ad Supported <= 0.5\nsquared_error = 78827.1\nsamples = 29\nvalue = 118.3"] ;
535 -> 539 ;
540 [label="Size <= 16.9\nsquared_error = 699.2\nsamples = 15\nvalue = 22.9"] ;
539 -> 540 ;
541 [label="Size <= 3.3\nsquared_error = 288.1\nsamples = 8\nvalue = 11.3"] ;
540 -> 541 ;
542 [label="Minimum Android <= 2.8\nsquared_error = 11.2\nsamples = 3\nvalue = 2.5"] ;
541 -> 542 ;
543 [label="squared_error = 0.0\nsamples = 1\nvalue = 10.0"] ;
542 -> 543 ;
544 [label="squared_error = 0.0\nsamples = 2\nvalue = 1.0"] ;
542 -> 544 ;
545 [label="Size <= 4.9\nsquared_error = 401.8\nsamples = 5\nvalue = 18.9"] ;
541 -> 545 ;
546 [label="squared_error = 0.0\nsamples = 1\nvalue = 50.0"] ;
545 -> 546 ;
547 [label="Minimum Android <= 4.7\nsquared_error = 19.4\nsamples = 4\nvalue = 6.4"] ;
545 -> 547 ;
548 [label="squared_error = 0.0\nsamples = 3\nvalue = 10.0"] ;
547 -> 548 ;
549 [label="squared_error = 0.0\nsamples = 1\nvalue = 1.0"] ;
547 -> 549 ;
550 [label="Size <= 54.0\nsquared_error = 831.0\nsamples = 7\nvalue = 38.0"] ;
540 -> 550 ;
551 [label="Size <= 39.0\nsquared_error = 698.4\nsamples = 6\nvalue = 46.2"] ;
550 -> 551 ;
552 [label="Size <= 30.5\nsquared_error = 384.0\nsamples = 4\nvalue = 34.0"] ;
551 -> 552 ;
553 [label="Price <= 0.7\nsquared_error = 300.0\nsamples = 3\nvalue = 40.0"] ;
552 -> 553 ;
554 [label="squared_error = 0.0\nsamples = 2\nvalue = 50.0"] ;
553 -> 554 ;
555 [label="squared_error = 0.0\nsamples = 1\nvalue = 10.0"] ;
553 -> 555 ;
556 [label="squared_error = 0.0\nsamples = 1\nvalue = 10.0"] ;
552 -> 556 ;
557 [label="Size <= 48.0\nsquared_error = 555.6\nsamples = 2\nvalue = 66.7"] ;
551 -> 557 ;
558 [label="squared_error = 0.0\nsamples = 1\nvalue = 100.0"] ;
557 -> 558 ;
559 [label="squared_error = 0.0\nsamples = 1\nvalue = 50.0"] ;
557 -> 559 ;
560 [label="squared_error = 0.0\nsamples = 1\nvalue = 5.0"] ;
550 -> 560 ;
561 [label="Minimum Android <= 4.2\nsquared_error = 143528.2\nsamples = 14\nvalue = 222.7"] ;
539 -> 561 ;
562 [label="Size <= 8.3\nsquared_error = 1040.8\nsamples = 5\nvalue = 28.6"] ;
561 -> 562 ;
563 [label="squared_error = 0.0\nsamples = 2\nvalue = 10.0"] ;
562 -> 563 ;
564 [label="Size <= 20.0\nsquared_error = 1355.6\nsamples = 3\nvalue = 53.3"] ;
562 -> 564 ;
565 [label="Size <= 16.0\nsquared_error = 625.0\nsamples = 2\nvalue = 75.0"] ;
564 -> 565 ;
566 [label="squared_error = 0.0\nsamples = 1\nvalue = 50.0"] ;
565 -> 566 ;
567 [label="squared_error = 0.0\nsamples = 1\nvalue = 100.0"] ;
565 -> 567 ;
568 [label="squared_error = 0.0\nsamples = 1\nvalue = 10.0"] ;
564 -> 568 ;
569 [label="Size <= 5.5\nsquared_error = 186503.3\nsamples = 9\nvalue = 319.8"] ;
561 -> 569 ;
570 [label="squared_error = 0.0\nsamples = 1\nvalue = 1000.0"] ;
569 -> 570 ;
571 [label="Size <= 19.5\nsquared_error = 127619.4\nsamples = 8\nvalue = 206.4"] ;
569 -> 571 ;
572 [label="Minimum Android <= 4.8\nsquared_error = 2052.6\nsamples = 5\nvalue = 57.1"] ;
571 -> 572 ;
573 [label="Size <= 7.6\nsquared_error = 400.0\nsamples = 3\nvalue = 90.0"] ;
572 -> 573 ;
574 [label="squared_error = 0.0\nsamples = 1\nvalue = 100.0"] ;
573 -> 574 ;
575 [label="Size <= 11.2\nsquared_error = 625.0\nsamples = 2\nvalue = 75.0"] ;
573 -> 575 ;
576 [label="squared_error = 0.0\nsamples = 1\nvalue = 50.0"] ;
575 -> 576 ;
577 [label="squared_error = 0.0\nsamples = 1\nvalue = 100.0"] ;
575 -> 577 ;
578 [label="Size <= 13.0\nsquared_error = 3.6\nsamples = 2\nvalue = 2.3"] ;
572 -> 578 ;
579 [label="squared_error = 0.0\nsamples = 1\nvalue = 5.0"] ;
578 -> 579 ;
580 [label="squared_error = 0.0\nsamples = 1\nvalue = 1.0"] ;
578 -> 580 ;
581 [label="Size <= 20.5\nsquared_error = 245025.0\nsamples = 3\nvalue = 505.0"] ;
571 -> 581 ;
582 [label="squared_error = 0.0\nsamples = 1\nvalue = 1000.0"] ;
581 -> 582 ;
583 [label="squared_error = 0.0\nsamples = 2\nvalue = 10.0"] ;
581 -> 583 ;
584 [label="In App Purchases <= 0.5\nsquared_error = 2398081464.0\nsamples = 3\nvalue = 40024.0"] ;
534 -> 584 ;
585 [label="squared_error = 0.0\nsamples = 1\nvalue = 100000.0"] ;
584 -> 585 ;
586 [label="Ad Supported <= 0.5\nsquared_error = 1800.0\nsamples = 2\nvalue = 40.0"] ;
584 -> 586 ;
587 [label="squared_error = 0.0\nsamples = 1\nvalue = 100.0"] ;
586 -> 587 ;
588 [label="squared_error = 0.0\nsamples = 1\nvalue = 10.0"] ;
586 -> 588 ;
589 [label="Minimum Android <= 2.2\nsquared_error = 12084746.1\nsamples = 1503\nvalue = 359.7"] ;
7 -> 589 ;
590 [label="Size <= 1.4\nsquared_error = 87076292.2\nsamples = 36\nvalue = 1992.8"] ;
589 -> 590 ;
591 [label="Size <= 1.2\nsquared_error = 368491223.1\nsamples = 6\nvalue = 9286.4"] ;
590 -> 591 ;
592 [label="Category <= 35.5\nsquared_error = 165765.4\nsamples = 5\nvalue = 238.9"] ;
591 -> 592 ;
593 [label="Size <= 0.9\nsquared_error = 326.5\nsamples = 4\nvalue = 21.4"] ;
592 -> 593 ;
594 [label="squared_error = 0.0\nsamples = 3\nvalue = 10.0"] ;
593 -> 594 ;
595 [label="squared_error = 0.0\nsamples = 1\nvalue = 50.0"] ;
593 -> 595 ;
596 [label="squared_error = 0.0\nsamples = 1\nvalue = 1000.0"] ;
592 -> 596 ;
597 [label="squared_error = 0.0\nsamples = 1\nvalue = 50000.0"] ;
591 -> 597 ;
598 [label="Rating <= 0.7\nsquared_error = 98621.7\nsamples = 30\nvalue = 169.4"] ;
590 -> 598 ;
599 [label="Size <= 1.6\nsquared_error = 84496.6\nsamples = 29\nvalue = 150.0"] ;
598 -> 599 ;
600 [label="squared_error = 0.0\nsamples = 1\nvalue = 1000.0"] ;
599 -> 600 ;
601 [label="Size <= 4.1\nsquared_error = 68898.3\nsamples = 28\nvalue = 129.8"] ;
599 -> 601 ;
602 [label="Size <= 3.3\nsquared_error = 120947.4\nsamples = 14\nvalue = 200.0"] ;
601 -> 602 ;
603 [label="Size <= 2.6\nsquared_error = 561.0\nsamples = 9\nvalue = 47.0"] ;
602 -> 603 ;
604 [label="Size <= 2.1\nsquared_error = 400.0\nsamples = 5\nvalue = 60.0"] ;
603 -> 604 ;
605 [label="squared_error = 0.0\nsamples = 3\nvalue = 50.0"] ;
604 -> 605 ;
606 [label="Category <= 18.0\nsquared_error = 625.0\nsamples = 2\nvalue = 75.0"] ;
604 -> 606 ;
607 [label="squared_error = 0.0\nsamples = 1\nvalue = 50.0"] ;
606 -> 607 ;
608 [label="squared_error = 0.0\nsamples = 1\nvalue = 100.0"] ;
606 -> 608 ;
609 [label="Category <= 17.0\nsquared_error = 384.0\nsamples = 4\nvalue = 34.0"] ;
603 -> 609 ;
610 [label="squared_error = 0.0\nsamples = 2\nvalue = 50.0"] ;
609 -> 610 ;
611 [label="squared_error = 0.0\nsamples = 2\nvalue = 10.0"] ;
609 -> 611 ;
612 [label="Size <= 3.5\nsquared_error = 199800.0\nsamples = 5\nvalue = 370.0"] ;
602 -> 612 ;
613 [label="squared_error = 0.0\nsamples = 1\nvalue = 1000.0"] ;
612 -> 613 ;
614 [label="Minimum Android <= 2.1\nsquared_error = 111085.7\nsamples = 4\nvalue = 190.0"] ;
612 -> 614 ;
615 [label="Size <= 4.0\nsquared_error = 2025.0\nsamples = 3\nvalue = 55.0"] ;
614 -> 615 ;
616 [label="squared_error = 0.0\nsamples = 2\nvalue = 100.0"] ;
615 -> 616 ;
617 [label="squared_error = 0.0\nsamples = 1\nvalue = 10.0"] ;
615 -> 617 ;
618 [label="squared_error = 0.0\nsamples = 1\nvalue = 1000.0"] ;
614 -> 618 ;
619 [label="Category <= 25.0\nsquared_error = 18469.4\nsamples = 14\nvalue = 71.8"] ;
601 -> 619 ;
620 [label="Minimum Android <= 2.0\nsquared_error = 45456.0\nsamples = 4\nvalue = 242.0"] ;
619 -> 620 ;
621 [label="Minimum Android <= 1.8\nsquared_error = 1800.0\nsamples = 3\nvalue = 70.0"] ;
620 -> 621 ;
622 [label="squared_error = 0.0\nsamples = 1\nvalue = 10.0"] ;
621 -> 622 ;
623 [label="squared_error = 0.0\nsamples = 2\nvalue = 100.0"] ;
621 -> 623 ;
624 [label="squared_error = 0.0\nsamples = 1\nvalue = 500.0"] ;
620 -> 624 ;
625 [label="Minimum Android <= 2.0\nsquared_error = 694.4\nsamples = 10\nvalue = 24.6"] ;
619 -> 625 ;
626 [label="Size <= 6.3\nsquared_error = 583.7\nsamples = 4\nvalue = 51.4"] ;
625 -> 626 ;
627 [label="squared_error = 0.0\nsamples = 1\nvalue = 100.0"] ;
626 -> 627 ;
628 [label="Category <= 30.5\nsquared_error = 222.2\nsamples = 3\nvalue = 43.3"] ;
626 -> 628 ;
629 [label="squared_error = 0.0\nsamples = 1\nvalue = 10.0"] ;
628 -> 629 ;
630 [label="squared_error = 0.0\nsamples = 2\nvalue = 50.0"] ;
628 -> 630 ;
631 [label="Ad Supported <= 0.5\nsquared_error = 12.8\nsamples = 6\nvalue = 7.5"] ;
625 -> 631 ;
632 [label="Size <= 8.3\nsquared_error = 13.6\nsamples = 4\nvalue = 5.3"] ;
631 -> 632 ;
633 [label="squared_error = 0.0\nsamples = 1\nvalue = 1.0"] ;
632 -> 633 ;
634 [label="Free <= 0.5\nsquared_error = 6.2\nsamples = 3\nvalue = 7.5"] ;
632 -> 634 ;
635 [label="Category <= 38.5\nsquared_error = 5.6\nsamples = 2\nvalue = 6.7"] ;
634 -> 635 ;
636 [label="squared_error = 0.0\nsamples = 1\nvalue = 5.0"] ;
635 -> 636 ;
637 [label="squared_error = 0.0\nsamples = 1\nvalue = 10.0"] ;
635 -> 637 ;
638 [label="squared_error = 0.0\nsamples = 1\nvalue = 10.0"] ;
634 -> 638 ;
639 [label="squared_error = 0.0\nsamples = 2\nvalue = 10.0"] ;
631 -> 639 ;
640 [label="squared_error = 0.0\nsamples = 1\nvalue = 1000.0"] ;
598 -> 640 ;
641 [label="Category <= 42.5\nsquared_error = 10241414.7\nsamples = 1467\nvalue = 321.0"] ;
589 -> 641 ;
642 [label="Size <= 3.0\nsquared_error = 6234681.8\nsamples = 1396\nvalue = 282.4"] ;
641 -> 642 ;
643 [label="Size <= 2.9\nsquared_error = 49155031.5\nsamples = 166\nvalue = 710.1"] ;
642 -> 643 ;
644 [label="Size <= 2.2\nsquared_error = 41098246.4\nsamples = 160\nvalue = 531.4"] ;
643 -> 644 ;
645 [label="Rating Count <= 2.5\nsquared_error = 56322.9\nsamples = 107\nvalue = 146.0"] ;
644 -> 645 ;
646 [label="Minimum Android <= 4.4\nsquared_error = 52114.6\nsamples = 106\nvalue = 140.7"] ;
645 -> 646 ;
647 [label="Size <= 2.1\nsquared_error = 66850.2\nsamples = 69\nvalue = 177.9"] ;
646 -> 647 ;
648 [label="Size <= 0.8\nsquared_error = 50040.1\nsamples = 65\nvalue = 160.5"] ;
647 -> 648 ;
649 [label="Size <= 0.2\nsquared_error = 66016.5\nsamples = 12\nvalue = 273.7"] ;
648 -> 649 ;
650 [label="Ad Supported <= 0.5\nsquared_error = 14221.1\nsamples = 7\nvalue = 109.3"] ;
649 -> 650 ;
651 [label="Minimum Android <= 3.1\nsquared_error = 1626.2\nsamples = 6\nvalue = 76.8"] ;
650 -> 651 ;
652 [label="Size <= 0.1\nsquared_error = 20.2\nsamples = 2\nvalue = 5.5"] ;
651 -> 652 ;
653 [label="squared_error = 0.0\nsamples = 1\nvalue = 1.0"] ;
652 -> 653 ;
654 [label="squared_error = 0.0\nsamples = 1\nvalue = 10.0"] ;
652 -> 654 ;
655 [label="Size <= 0.1\nsquared_error = 729.0\nsamples = 4\nvalue = 91.0"] ;
651 -> 655 ;
656 [label="squared_error = 0.0\nsamples = 1\nvalue = 10.0"] ;
655 -> 656 ;
657 [label="squared_error = 0.0\nsamples = 3\nvalue = 100.0"] ;
655 -> 657 ;
658 [label="squared_error = 0.0\nsamples = 1\nvalue = 500.0"] ;
650 -> 658 ;
659 [label="Category <= 18.0\nsquared_error = 45432.1\nsamples = 5\nvalue = 511.1"] ;
649 -> 659 ;
660 [label="squared_error = 0.0\nsamples = 1\nvalue = 1000.0"] ;
659 -> 660 ;
661 [label="Category <= 30.5\nsquared_error = 17500.0\nsamples = 4\nvalue = 450.0"] ;
659 -> 661 ;
662 [label="squared_error = 0.0\nsamples = 1\nvalue = 100.0"] ;
661 -> 662 ;
663 [label="squared_error = 0.0\nsamples = 3\nvalue = 500.0"] ;
661 -> 663 ;
664 [label="Size <= 1.7\nsquared_error = 40635.5\nsamples = 53\nvalue = 127.8"] ;
648 -> 664 ;
665 [label="Size <= 1.2\nsquared_error = 11608.5\nsamples = 26\nvalue = 77.3"] ;
664 -> 665 ;
666 [label="Category <= 22.5\nsquared_error = 18533.0\nsamples = 11\nvalue = 125.6"] ;
665 -> 666 ;
667 [label="Minimum Android <= 4.0\nsquared_error = 35555.6\nsamples = 4\nvalue = 233.3"] ;
666 -> 667 ;
668 [label="squared_error = 0.0\nsamples = 2\nvalue = 100.0"] ;
667 -> 668 ;
669 [label="squared_error = 0.0\nsamples = 2\nvalue = 500.0"] ;
667 -> 669 ;
670 [label="Minimum Android <= 4.2\nsquared_error = 1318.7\nsamples = 7\nvalue = 71.8"] ;
666 -> 670 ;
671 [label="Category <= 33.5\nsquared_error = 525.0\nsamples = 5\nvalue = 85.0"] ;
670 -> 671 ;
672 [label="squared_error = 0.0\nsamples = 2\nvalue = 50.0"] ;
671 -> 672 ;
673 [label="squared_error = 0.0\nsamples = 3\nvalue = 100.0"] ;
671 -> 673 ;
674 [label="Size <= 0.9\nsquared_error = 20.2\nsamples = 2\nvalue = 5.5"] ;
670 -> 674 ;
675 [label="squared_error = 0.0\nsamples = 1\nvalue = 10.0"] ;
674 -> 675 ;
676 [label="squared_error = 0.0\nsamples = 1\nvalue = 1.0"] ;
674 -> 676 ;
677 [label="Minimum Android <= 4.1\nsquared_error = 1388.0\nsamples = 15\nvalue = 33.8"] ;
665 -> 677 ;
678 [label="Minimum Android <= 4.0\nsquared_error = 1425.0\nsamples = 6\nvalue = 65.0"] ;
677 -> 678 ;
679 [label="Category <= 28.5\nsquared_error = 1104.0\nsamples = 4\nvalue = 44.0"] ;
678 -> 679 ;
680 [label="Size <= 1.4\nsquared_error = 400.0\nsamples = 3\nvalue = 30.0"] ;
679 -> 680 ;
681 [label="squared_error = 0.0\nsamples = 2\nvalue = 10.0"] ;
680 -> 681 ;
682 [label="squared_error = 0.0\nsamples = 1\nvalue = 50.0"] ;
680 -> 682 ;
683 [label="squared_error = 0.0\nsamples = 1\nvalue = 100.0"] ;
679 -> 683 ;
684 [label="squared_error = 0.0\nsamples = 2\nvalue = 100.0"] ;
678 -> 684 ;
685 [label="Size <= 1.3\nsquared_error = 285.2\nsamples = 9\nvalue = 13.1"] ;
677 -> 685 ;
686 [label="squared_error = 0.0\nsamples = 2\nvalue = 50.0"] ;
685 -> 686 ;
687 [label="Category <= 39.5\nsquared_error = 15.2\nsamples = 7\nvalue = 5.7"] ;
685 -> 687 ;
688 [label="Category <= 31.5\nsquared_error = 10.4\nsamples = 5\nvalue = 3.9"] ;
687 -> 688 ;
689 [label="Category <= 21.5\nsquared_error = 9.2\nsamples = 4\nvalue = 4.5"] ;
688 -> 689 ;
690 [label="Size <= 1.4\nsquared_error = 3.8\nsamples = 3\nvalue = 3.4"] ;
689 -> 690 ;
691 [label="squared_error = 4.0\nsamples = 2\nvalue = 3.0"] ;
690 -> 691 ;
692 [label="squared_error = 0.0\nsamples = 1\nvalue = 5.0"] ;
690 -> 692 ;
693 [label="squared_error = 0.0\nsamples = 1\nvalue = 10.0"] ;
689 -> 693 ;
694 [label="squared_error = 0.0\nsamples = 1\nvalue = 0.0"] ;
688 -> 694 ;
695 [label="squared_error = 0.0\nsamples = 2\nvalue = 10.0"] ;
687 -> 695 ;
696 [label="Size <= 1.9\nsquared_error = 64572.6\nsamples = 27\nvalue = 178.2"] ;
664 -> 696 ;
697 [label="Ad Supported <= 0.5\nsquared_error = 87870.8\nsamples = 16\nvalue = 261.6"] ;
696 -> 697 ;
698 [label="Minimum Android <= 4.0\nsquared_error = 65955.6\nsamples = 15\nvalue = 228.0"] ;
697 -> 698 ;
699 [label="Size <= 1.8\nsquared_error = 98877.6\nsamples = 4\nvalue = 392.9"] ;
698 -> 699 ;
700 [label="Category <= 22.5\nsquared_error = 90400.0\nsamples = 3\nvalue = 510.0"] ;
699 -> 700 ;
701 [label="squared_error = 0.0\nsamples = 1\nvalue = 50.0"] ;
700 -> 701 ;
702 [label="Category <= 31.5\nsquared_error = 46875.0\nsamples = 2\nvalue = 625.0"] ;
700 -> 702 ;
703 [label="squared_error = 0.0\nsamples = 1\nvalue = 1000.0"] ;
702 -> 703 ;
704 [label="squared_error = 0.0\nsamples = 1\nvalue = 500.0"] ;
702 -> 704 ;
705 [label="squared_error = 0.0\nsamples = 1\nvalue = 100.0"] ;
699 -> 705 ;
706 [label="Size <= 1.8\nsquared_error = 32000.5\nsamples = 11\nvalue = 151.1"] ;
698 -> 706 ;
707 [label="Category <= 22.0\nsquared_error = 1919.8\nsamples = 4\nvalue = 42.8"] ;
706 -> 707 ;
708 [label="squared_error = 0.0\nsamples = 1\nvalue = 100.0"] ;
707 -> 708 ;
709 [label="Size <= 1.8\nsquared_error = 428.7\nsamples = 3\nvalue = 14.2"] ;
707 -> 709 ;
710 [label="squared_error = 0.0\nsamples = 1\nvalue = 1.0"] ;
709 -> 710 ;
711 [label="Category <= 33.0\nsquared_error = 506.2\nsamples = 2\nvalue = 27.5"] ;
709 -> 711 ;
712 [label="squared_error = 0.0\nsamples = 1\nvalue = 5.0"] ;
711 -> 712 ;
713 [label="squared_error = 0.0\nsamples = 1\nvalue = 50.0"] ;
711 -> 713 ;
714 [label="Category <= 30.5\nsquared_error = 39022.2\nsamples = 7\nvalue = 223.3"] ;
706 -> 714 ;
715 [label="Minimum Android <= 4.2\nsquared_error = 41760.9\nsamples = 6\nvalue = 238.8"] ;
714 -> 715 ;
716 [label="squared_error = 40000.0\nsamples = 2\nvalue = 300.0"] ;
715 -> 716 ;
717 [label="Category <= 18.5\nsquared_error = 40680.6\nsamples = 4\nvalue = 218.3"] ;
715 -> 717 ;
718 [label="squared_error = 45456.0\nsamples = 3\nvalue = 242.0"] ;
717 -> 718 ;
719 [label="squared_error = 0.0\nsamples = 1\nvalue = 100.0"] ;
717 -> 719 ;
720 [label="squared_error = 0.0\nsamples = 1\nvalue = 100.0"] ;
714 -> 720 ;
721 [label="squared_error = 0.0\nsamples = 1\nvalue = 1000.0"] ;
697 -> 721 ;
722 [label="Minimum Android <= 4.1\nsquared_error = 1831.6\nsamples = 11\nvalue = 50.3"] ;
696 -> 722 ;
723 [label="Minimum Android <= 3.1\nsquared_error = 1572.2\nsamples = 6\nvalue = 73.3"] ;
722 -> 723 ;
724 [label="squared_error = 0.0\nsamples = 1\nvalue = 5.0"] ;
723 -> 724 ;
725 [label="Size <= 2.0\nsquared_error = 1112.1\nsamples = 5\nvalue = 81.9"] ;
723 -> 725 ;
726 [label="Minimum Android <= 4.0\nsquared_error = 1464.0\nsamples = 4\nvalue = 71.0"] ;
725 -> 726 ;
727 [label="squared_error = 0.0\nsamples = 1\nvalue = 100.0"] ;
726 -> 727 ;
728 [label="Category <= 17.0\nsquared_error = 1505.6\nsamples = 3\nvalue = 51.7"] ;
726 -> 728 ;
729 [label="squared_error = 0.0\nsamples = 1\nvalue = 100.0"] ;
728 -> 729 ;
730 [label="Category <= 28.0\nsquared_error = 506.2\nsamples = 2\nvalue = 27.5"] ;
728 -> 730 ;
731 [label="squared_error = 0.0\nsamples = 1\nvalue = 50.0"] ;
730 -> 731 ;
732 [label="squared_error = 0.0\nsamples = 1\nvalue = 5.0"] ;
730 -> 732 ;
733 [label="squared_error = 0.0\nsamples = 1\nvalue = 100.0"] ;
725 -> 733 ;
734 [label="Category <= 35.0\nsquared_error = 236.8\nsamples = 5\nvalue = 15.8"] ;
722 -> 734 ;
735 [label="Minimum Android <= 4.2\nsquared_error = 4.7\nsamples = 3\nvalue = 8.8"] ;
734 -> 735 ;
736 [label="squared_error = 0.0\nsamples = 1\nvalue = 10.0"] ;
735 -> 736 ;
737 [label="Category <= 19.5\nsquared_error = 6.2\nsamples = 2\nvalue = 7.5"] ;
735 -> 737 ;
738 [label="squared_error = 0.0\nsamples = 1\nvalue = 10.0"] ;
737 -> 738 ;
739 [label="squared_error = 0.0\nsamples = 1\nvalue = 5.0"] ;
737 -> 739 ;
740 [label="Ad Supported <= 0.5\nsquared_error = 400.0\nsamples = 2\nvalue = 30.0"] ;
734 -> 740 ;
741 [label="squared_error = 0.0\nsamples = 1\nvalue = 50.0"] ;
740 -> 741 ;
742 [label="squared_error = 0.0\nsamples = 1\nvalue = 10.0"] ;
740 -> 742 ;
743 [label="Minimum Android <= 3.1\nsquared_error = 223980.2\nsamples = 4\nvalue = 390.2"] ;
647 -> 743 ;
744 [label="squared_error = 0.0\nsamples = 1\nvalue = 1000.0"] ;
743 -> 744 ;
745 [label="Minimum Android <= 4.0\nsquared_error = 1445.0\nsamples = 3\nvalue = 24.4"] ;
743 -> 745 ;
746 [label="Category <= 32.0\nsquared_error = 1800.0\nsamples = 2\nvalue = 40.0"] ;
745 -> 746 ;
747 [label="squared_error = 0.0\nsamples = 1\nvalue = 100.0"] ;
746 -> 747 ;
748 [label="squared_error = 0.0\nsamples = 1\nvalue = 10.0"] ;
746 -> 748 ;
749 [label="squared_error = 0.0\nsamples = 1\nvalue = 1.0"] ;
745 -> 749 ;
750 [label="Minimum Android <= 5.5\nsquared_error = 15921.1\nsamples = 37\nvalue = 69.1"] ;
646 -> 750 ;
751 [label="Content Rating <= 1.5\nsquared_error = 9844.0\nsamples = 34\nvalue = 54.4"] ;
750 -> 751 ;
752 [label="Size <= 1.7\nsquared_error = 11461.1\nsamples = 30\nvalue = 64.9"] ;
751 -> 752 ;
753 [label="Category <= 32.0\nsquared_error = 9794.2\nsamples = 16\nvalue = 44.0"] ;
752 -> 753 ;
754 [label="Minimum Android <= 5.0\nsquared_error = 6.2\nsamples = 7\nvalue = 9.2"] ;
753 -> 754 ;
755 [label="squared_error = 0.0\nsamples = 6\nvalue = 10.0"] ;
754 -> 755 ;
756 [label="squared_error = 0.0\nsamples = 1\nvalue = 1.0"] ;
754 -> 756 ;
757 [label="Size <= 1.2\nsquared_error = 17167.2\nsamples = 9\nvalue = 78.8"] ;
753 -> 757 ;
758 [label="Category <= 39.5\nsquared_error = 1232.2\nsamples = 7\nvalue = 39.5"] ;
757 -> 758 ;
759 [label="Category <= 38.0\nsquared_error = 5.6\nsamples = 2\nvalue = 8.3"] ;
758 -> 759 ;
760 [label="squared_error = 0.0\nsamples = 1\nvalue = 5.0"] ;
759 -> 760 ;
761 [label="squared_error = 0.0\nsamples = 1\nvalue = 10.0"] ;
759 -> 761 ;
762 [label="Size <= 0.3\nsquared_error = 1163.3\nsamples = 5\nvalue = 52.9"] ;
758 -> 762 ;
763 [label="squared_error = 0.0\nsamples = 1\nvalue = 100.0"] ;
762 -> 763 ;
764 [label="Ad Supported <= 0.5\nsquared_error = 925.0\nsamples = 4\nvalue = 45.0"] ;
762 -> 764 ;
765 [label="Minimum Android <= 4.7\nsquared_error = 816.0\nsamples = 3\nvalue = 52.0"] ;
764 -> 765 ;
766 [label="Size <= 0.7\nsquared_error = 468.8\nsamples = 2\nvalue = 62.5"] ;
765 -> 766 ;
767 [label="squared_error = 0.0\nsamples = 1\nvalue = 50.0"] ;
766 -> 767 ;
768 [label="squared_error = 0.0\nsamples = 1\nvalue = 100.0"] ;
766 -> 768 ;
769 [label="squared_error = 0.0\nsamples = 1\nvalue = 10.0"] ;
765 -> 769 ;
770 [label="squared_error = 0.0\nsamples = 1\nvalue = 10.0"] ;
764 -> 770 ;
771 [label="Size <= 1.3\nsquared_error = 50625.0\nsamples = 2\nvalue = 275.0"] ;
757 -> 771 ;
772 [label="squared_error = 0.0\nsamples = 1\nvalue = 500.0"] ;
771 -> 772 ;
773 [label="squared_error = 0.0\nsamples = 1\nvalue = 50.0"] ;
771 -> 773 ;
774 [label="Ad Supported <= 0.5\nsquared_error = 12323.4\nsamples = 14\nvalue = 96.2"] ;
752 -> 774 ;
775 [label="Category <= 19.0\nsquared_error = 1783.5\nsamples = 10\nvalue = 62.7"] ;
774 -> 775 ;
776 [label="squared_error = 0.0\nsamples = 3\nvalue = 100.0"] ;
775 -> 776 ;
777 [label="Size <= 2.1\nsquared_error = 1555.1\nsamples = 7\nvalue = 41.4"] ;
775 -> 777 ;
778 [label="Size <= 1.9\nsquared_error = 1296.0\nsamples = 5\nvalue = 28.0"] ;
777 -> 778 ;
779 [label="Category <= 33.0\nsquared_error = 2025.0\nsamples = 2\nvalue = 55.0"] ;
778 -> 779 ;
780 [label="squared_error = 0.0\nsamples = 1\nvalue = 10.0"] ;
779 -> 780 ;
781 [label="squared_error = 0.0\nsamples = 1\nvalue = 100.0"] ;
779 -> 781 ;
782 [label="squared_error = 0.0\nsamples = 3\nvalue = 10.0"] ;
778 -> 782 ;
783 [label="Category <= 31.5\nsquared_error = 625.0\nsamples = 2\nvalue = 75.0"] ;
777 -> 783 ;
784 [label="squared_error = 0.0\nsamples = 1\nvalue = 100.0"] ;
783 -> 784 ;
785 [label="squared_error = 0.0\nsamples = 1\nvalue = 50.0"] ;
783 -> 785 ;
786 [label="Category <= 31.0\nsquared_error = 27600.0\nsamples = 4\nvalue = 170.0"] ;
774 -> 786 ;
787 [label="squared_error = 0.0\nsamples = 1\nvalue = 500.0"] ;
786 -> 787 ;
788 [label="Size <= 2.0\nsquared_error = 468.8\nsamples = 3\nvalue = 87.5"] ;
786 -> 788 ;
789 [label="squared_error = 0.0\nsamples = 1\nvalue = 50.0"] ;
788 -> 789 ;
790 [label="squared_error = 0.0\nsamples = 2\nvalue = 100.0"] ;
788 -> 790 ;
791 [label="Size <= 1.8\nsquared_error = 14.0\nsamples = 4\nvalue = 8.0"] ;
751 -> 791 ;
792 [label="squared_error = 0.0\nsamples = 3\nvalue = 10.0"] ;
791 -> 792 ;
793 [label="squared_error = 0.0\nsamples = 1\nvalue = 1.0"] ;
791 -> 793 ;
794 [label="Category <= 21.5\nsquared_error = 49580.6\nsamples = 3\nvalue = 188.3"] ;
750 -> 794 ;
795 [label="squared_error = 0.0\nsamples = 1\nvalue = 500.0"] ;
794 -> 795 ;
796 [label="squared_error = 1518.8\nsamples = 2\nvalue = 32.5"] ;
794 -> 796 ;
797 [label="squared_error = 0.0\nsamples = 1\nvalue = 1000.0"] ;
645 -> 797 ;
798 [label="Size <= 2.4\nsquared_error = 123298171.9\nsamples = 53\nvalue = 1311.9"] ;
644 -> 798 ;
799 [label="Minimum Android <= 4.2\nsquared_error = 763057472.2\nsamples = 11\nvalue = 8383.3"] ;
798 -> 799 ;
800 [label="Category <= 24.0\nsquared_error = 1386613125.0\nsamples = 5\nvalue = 16735.0"] ;
799 -> 800 ;
801 [label="Category <= 17.0\nsquared_error = 1800.0\nsamples = 3\nvalue = 70.0"] ;
800 -> 801 ;
802 [label="squared_error = 0.0\nsamples = 1\nvalue = 100.0"] ;
801 -> 802 ;
803 [label="Category <= 19.5\nsquared_error = 2025.0\nsamples = 2\nvalue = 55.0"] ;
801 -> 803 ;
804 [label="squared_error = 0.0\nsamples = 1\nvalue = 10.0"] ;
803 -> 804 ;
805 [label="squared_error = 0.0\nsamples = 1\nvalue = 100.0"] ;
803 -> 805 ;
806 [label="Category <= 30.5\nsquared_error = 2217780000.0\nsamples = 2\nvalue = 33400.0"] ;
800 -> 806 ;
807 [label="squared_error = 0.0\nsamples = 1\nvalue = 100000.0"] ;
806 -> 807 ;
808 [label="squared_error = 0.0\nsamples = 1\nvalue = 100.0"] ;
806 -> 808 ;
809 [label="Category <= 26.5\nsquared_error = 1147.2\nsamples = 6\nvalue = 31.7"] ;
799 -> 809 ;
810 [label="Ad Supported <= 0.5\nsquared_error = 625.0\nsamples = 2\nvalue = 75.0"] ;
809 -> 810 ;
811 [label="squared_error = 0.0\nsamples = 1\nvalue = 50.0"] ;
810 -> 811 ;
812 [label="squared_error = 0.0\nsamples = 1\nvalue = 100.0"] ;
810 -> 812 ;
813 [label="squared_error = 0.0\nsamples = 4\nvalue = 10.0"] ;
809 -> 813 ;
814 [label="Minimum Android <= 4.0\nsquared_error = 17775.8\nsamples = 42\nvalue = 64.0"] ;
798 -> 814 ;
815 [label="Size <= 2.6\nsquared_error = 58953.1\nsamples = 9\nvalue = 134.3"] ;
814 -> 815 ;
816 [label="Category <= 24.0\nsquared_error = 1281.0\nsamples = 6\nvalue = 67.0"] ;
815 -> 816 ;
817 [label="Size <= 2.5\nsquared_error = 1163.3\nsamples = 4\nvalue = 52.9"] ;
816 -> 817 ;
818 [label="Category <= 17.5\nsquared_error = 468.8\nsamples = 2\nvalue = 62.5"] ;
817 -> 818 ;
819 [label="squared_error = 0.0\nsamples = 1\nvalue = 100.0"] ;
818 -> 819 ;
820 [label="squared_error = 0.0\nsamples = 1\nvalue = 50.0"] ;
818 -> 820 ;
821 [label="Category <= 16.0\nsquared_error = 1800.0\nsamples = 2\nvalue = 40.0"] ;
817 -> 821 ;
822 [label="squared_error = 0.0\nsamples = 1\nvalue = 10.0"] ;
821 -> 822 ;
823 [label="squared_error = 0.0\nsamples = 1\nvalue = 100.0"] ;
821 -> 823 ;
824 [label="squared_error = 0.0\nsamples = 2\nvalue = 100.0"] ;
816 -> 824 ;
825 [label="Category <= 20.0\nsquared_error = 163518.8\nsamples = 3\nvalue = 302.5"] ;
815 -> 825 ;
826 [label="squared_error = 0.0\nsamples = 1\nvalue = 1000.0"] ;
825 -> 826 ;
827 [label="Size <= 2.8\nsquared_error = 1800.0\nsamples = 2\nvalue = 70.0"] ;
825 -> 827 ;
828 [label="squared_error = 0.0\nsamples = 1\nvalue = 100.0"] ;
827 -> 828 ;
829 [label="squared_error = 0.0\nsamples = 1\nvalue = 10.0"] ;
827 -> 829 ;
830 [label="Ad Supported <= 0.5\nsquared_error = 5487.4\nsamples = 33\nvalue = 45.8"] ;
814 -> 830 ;
831 [label="Minimum Android <= 5.5\nsquared_error = 1298.2\nsamples = 20\nvalue = 29.6"] ;
830 -> 831 ;
832 [label="Category <= 14.0\nsquared_error = 1050.2\nsamples = 19\nvalue = 25.2"] ;
831 -> 832 ;
833 [label="squared_error = 0.0\nsamples = 1\nvalue = 100.0"] ;
832 -> 833 ;
834 [label="Category <= 16.0\nsquared_error = 897.7\nsamples = 18\nvalue = 22.8"] ;
832 -> 834 ;
835 [label="squared_error = 0.0\nsamples = 1\nvalue = 50.0"] ;
834 -> 835 ;
836 [label="Category <= 20.5\nsquared_error = 904.9\nsamples = 17\nvalue = 20.9"] ;
834 -> 836 ;
837 [label="Minimum Android <= 4.7\nsquared_error = 238.0\nsamples = 7\nvalue = 12.0"] ;
836 -> 837 ;
838 [label="Size <= 2.8\nsquared_error = 18.3\nsamples = 6\nvalue = 6.2"] ;
837 -> 838 ;
839 [label="Category <= 18.0\nsquared_error = 13.4\nsamples = 5\nvalue = 7.7"] ;
838 -> 839 ;
840 [label="Size <= 2.5\nsquared_error = 3.6\nsamples = 2\nvalue = 2.3"] ;
839 -> 840 ;
841 [label="squared_error = 0.0\nsamples = 1\nvalue = 5.0"] ;
840 -> 841 ;
842 [label="squared_error = 0.0\nsamples = 1\nvalue = 1.0"] ;
840 -> 842 ;
843 [label="squared_error = 0.0\nsamples = 3\nvalue = 10.0"] ;
839 -> 843 ;
844 [label="squared_error = 0.0\nsamples = 1\nvalue = 1.0"] ;
838 -> 844 ;
845 [label="squared_error = 0.0\nsamples = 1\nvalue = 50.0"] ;
837 -> 845 ;
846 [label="Category <= 21.5\nsquared_error = 1443.8\nsamples = 10\nvalue = 30.4"] ;
836 -> 846 ;
847 [label="squared_error = 0.0\nsamples = 1\nvalue = 100.0"] ;
846 -> 847 ;
848 [label="Minimum Android <= 4.4\nsquared_error = 1153.9\nsamples = 9\nvalue = 25.1"] ;
846 -> 848 ;
849 [label="Category <= 35.0\nsquared_error = 1467.3\nsamples = 6\nvalue = 32.8"] ;
848 -> 849 ;
850 [label="squared_error = 0.0\nsamples = 1\nvalue = 100.0"] ;
849 -> 850 ;
851 [label="Size <= 2.8\nsquared_error = 1015.2\nsamples = 5\nvalue = 24.4"] ;
849 -> 851 ;
852 [label="Content Rating <= 1.5\nsquared_error = 4.7\nsamples = 2\nvalue = 6.2"] ;
851 -> 852 ;
853 [label="squared_error = 0.0\nsamples = 1\nvalue = 5.0"] ;
852 -> 853 ;
854 [label="squared_error = 0.0\nsamples = 1\nvalue = 10.0"] ;
852 -> 854 ;
855 [label="Minimum Android <= 4.2\nsquared_error = 1368.8\nsamples = 3\nvalue = 42.5"] ;
851 -> 855 ;
856 [label="squared_error = 0.0\nsamples = 1\nvalue = 100.0"] ;
855 -> 856 ;
857 [label="Category <= 38.0\nsquared_error = 355.6\nsamples = 2\nvalue = 23.3"] ;
855 -> 857 ;
858 [label="squared_error = 0.0\nsamples = 1\nvalue = 10.0"] ;
857 -> 858 ;
859 [label="squared_error = 0.0\nsamples = 1\nvalue = 50.0"] ;
857 -> 859 ;
860 [label="Minimum Android <= 5.0\nsquared_error = 15.2\nsamples = 3\nvalue = 7.8"] ;
848 -> 860 ;
861 [label="squared_error = 0.0\nsamples = 2\nvalue = 10.0"] ;
860 -> 861 ;
862 [label="squared_error = 0.0\nsamples = 1\nvalue = 1.0"] ;
860 -> 862 ;
863 [label="squared_error = 0.0\nsamples = 1\nvalue = 100.0"] ;
831 -> 863 ;
864 [label="Category <= 26.0\nsquared_error = 11405.9\nsamples = 13\nvalue = 73.3"] ;
830 -> 864 ;
865 [label="Size <= 2.6\nsquared_error = 1915.2\nsamples = 9\nvalue = 52.9"] ;
864 -> 865 ;
866 [label="Content Rating <= 1.5\nsquared_error = 1706.2\nsamples = 8\nvalue = 63.9"] ;
865 -> 866 ;
867 [label="Category <= 16.5\nsquared_error = 1710.5\nsamples = 7\nvalue = 53.1"] ;
866 -> 867 ;
868 [label="Minimum Android <= 4.2\nsquared_error = 1306.2\nsamples = 6\nvalue = 71.6"] ;
867 -> 868 ;
869 [label="squared_error = 0.0\nsamples = 2\nvalue = 50.0"] ;
868 -> 869 ;
870 [label="Minimum Android <= 4.7\nsquared_error = 1568.2\nsamples = 4\nvalue = 80.2"] ;
868 -> 870 ;
871 [label="squared_error = 1837.7\nsamples = 3\nvalue = 75.2"] ;
870 -> 871 ;
872 [label="squared_error = 0.0\nsamples = 1\nvalue = 100.0"] ;
870 -> 872 ;
873 [label="squared_error = 0.0\nsamples = 1\nvalue = 10.0"] ;
867 -> 873 ;
874 [label="squared_error = 0.0\nsamples = 1\nvalue = 100.0"] ;
866 -> 874 ;
875 [label="squared_error = 0.0\nsamples = 1\nvalue = 5.0"] ;
865 -> 875 ;
876 [label="Category <= 28.5\nsquared_error = 41025.0\nsamples = 4\nvalue = 155.0"] ;
864 -> 876 ;
877 [label="Size <= 2.8\nsquared_error = 40000.0\nsamples = 2\nvalue = 300.0"] ;
876 -> 877 ;
878 [label="squared_error = 0.0\nsamples = 1\nvalue = 500.0"] ;
877 -> 878 ;
879 [label="squared_error = 0.0\nsamples = 1\nvalue = 100.0"] ;
877 -> 879 ;
880 [label="squared_error = 0.0\nsamples = 2\nvalue = 10.0"] ;
876 -> 880 ;
881 [label="Content Rating <= 1.5\nsquared_error = 224651825.0\nsamples = 6\nvalue = 5035.0"] ;
643 -> 881 ;
882 [label="Minimum Android <= 4.8\nsquared_error = 1876.5\nsamples = 5\nvalue = 38.9"] ;
881 -> 882 ;
883 [label="squared_error = 0.0\nsamples = 2\nvalue = 100.0"] ;
882 -> 883 ;
884 [label="Category <= 27.0\nsquared_error = 13.9\nsamples = 3\nvalue = 8.3"] ;
882 -> 884 ;
885 [label="squared_error = 0.0\nsamples = 1\nvalue = 0.0"] ;
884 -> 885 ;
886 [label="squared_error = 0.0\nsamples = 2\nvalue = 10.0"] ;
884 -> 886 ;
887 [label="squared_error = 0.0\nsamples = 1\nvalue = 50000.0"] ;
881 -> 887 ;
888 [label="Size <= 18.4\nsquared_error = 684131.6\nsamples = 1230\nvalue = 227.3"] ;
642 -> 888 ;
889 [label="Size <= 12.5\nsquared_error = 961649.1\nsamples = 842\nvalue = 274.6"] ;
888 -> 889 ;
890 [label="Category <= 13.5\nsquared_error = 500407.6\nsamples = 669\nvalue = 218.0"] ;
889 -> 890 ;
891 [label="Ad Supported <= 0.5\nsquared_error = 6105568.6\nsamples = 21\nvalue = 824.2"] ;
890 -> 891 ;
892 [label="Size <= 10.4\nsquared_error = 103912.5\nsamples = 17\nvalue = 166.8"] ;
891 -> 892 ;
893 [label="Minimum Android <= 4.2\nsquared_error = 47338.2\nsamples = 16\nvalue = 94.4"] ;
892 -> 893 ;
894 [label="Size <= 5.7\nsquared_error = 97069.0\nsamples = 8\nvalue = 171.0"] ;
893 -> 894 ;
895 [label="Size <= 4.9\nsquared_error = 225625.0\nsamples = 2\nvalue = 525.0"] ;
894 -> 895 ;
896 [label="squared_error = 0.0\nsamples = 1\nvalue = 50.0"] ;
895 -> 896 ;
897 [label="squared_error = 0.0\nsamples = 1\nvalue = 1000.0"] ;
895 -> 897 ;
898 [label="Minimum Android <= 4.1\nsquared_error = 25768.8\nsamples = 6\nvalue = 82.5"] ;
894 -> 898 ;
899 [label="Size <= 7.2\nsquared_error = 991.8\nsamples = 5\nvalue = 22.9"] ;
898 -> 899 ;
900 [label="Size <= 6.7\nsquared_error = 1800.0\nsamples = 3\nvalue = 40.0"] ;
899 -> 900 ;
901 [label="squared_error = 0.0\nsamples = 2\nvalue = 10.0"] ;
900 -> 901 ;
902 [label="squared_error = 0.0\nsamples = 1\nvalue = 100.0"] ;
900 -> 902 ;
903 [label="squared_error = 0.0\nsamples = 2\nvalue = 10.0"] ;
899 -> 903 ;
904 [label="squared_error = 0.0\nsamples = 1\nvalue = 500.0"] ;
898 -> 904 ;
905 [label="Minimum Android <= 4.7\nsquared_error = 1096.4\nsamples = 8\nvalue = 35.5"] ;
893 -> 905 ;
906 [label="Size <= 4.0\nsquared_error = 811.7\nsamples = 7\nvalue = 30.1"] ;
905 -> 906 ;
907 [label="squared_error = 0.0\nsamples = 1\nvalue = 10.0"] ;
906 -> 907 ;
908 [label="Size <= 6.7\nsquared_error = 903.1\nsamples = 6\nvalue = 36.8"] ;
906 -> 908 ;
909 [label="Size <= 5.0\nsquared_error = 835.9\nsamples = 5\nvalue = 41.2"] ;
908 -> 909 ;
910 [label="squared_error = 2025.0\nsamples = 2\nvalue = 55.0"] ;
909 -> 910 ;
911 [label="Size <= 6.2\nsquared_error = 355.6\nsamples = 3\nvalue = 36.7"] ;
909 -> 911 ;
912 [label="squared_error = 0.0\nsamples = 1\nvalue = 10.0"] ;
911 -> 912 ;
913 [label="squared_error = 256.0\nsamples = 2\nvalue = 42.0"] ;
911 -> 913 ;
914 [label="squared_error = 0.0\nsamples = 1\nvalue = 1.0"] ;
908 -> 914 ;
915 [label="squared_error = 0.0\nsamples = 1\nvalue = 100.0"] ;
905 -> 915 ;
916 [label="squared_error = 0.0\nsamples = 1\nvalue = 1000.0"] ;
892 -> 916 ;
917 [label="Size <= 7.6\nsquared_error = 23150184.0\nsamples = 4\nvalue = 4111.0"] ;
891 -> 917 ;
918 [label="Content Rating <= 1.5\nsquared_error = 20055555.6\nsamples = 2\nvalue = 6833.3"] ;
917 -> 918 ;
919 [label="squared_error = 0.0\nsamples = 1\nvalue = 10000.0"] ;
918 -> 919 ;
920 [label="squared_error = 0.0\nsamples = 1\nvalue = 500.0"] ;
918 -> 920 ;
921 [label="Size <= 9.6\nsquared_error = 506.2\nsamples = 2\nvalue = 27.5"] ;
917 -> 921 ;
922 [label="squared_error = 0.0\nsamples = 1\nvalue = 50.0"] ;
921 -> 922 ;
923 [label="squared_error = 0.0\nsamples = 1\nvalue = 5.0"] ;
921 -> 923 ;
924 [label="Category <= 27.5\nsquared_error = 328642.1\nsamples = 648\nvalue = 200.6"] ;
890 -> 924 ;
925 [label="Category <= 19.5\nsquared_error = 548140.2\nsamples = 316\nvalue = 247.2"] ;
924 -> 925 ;
926 [label="Size <= 5.1\nsquared_error = 73588.5\nsamples = 166\nvalue = 162.9"] ;
925 -> 926 ;
927 [label="Minimum Android <= 4.4\nsquared_error = 20639.3\nsamples = 68\nvalue = 93.8"] ;
926 -> 927 ;
928 [label="Category <= 16.5\nsquared_error = 17878.2\nsamples = 49\nvalue = 78.6"] ;
927 -> 928 ;
929 [label="Category <= 15.5\nsquared_error = 34657.6\nsamples = 25\nvalue = 107.5"] ;
928 -> 929 ;
930 [label="Size <= 4.1\nsquared_error = 31120.5\nsamples = 24\nvalue = 96.3"] ;
929 -> 930 ;
931 [label="Size <= 3.4\nsquared_error = 1966.7\nsamples = 11\nvalue = 56.7"] ;
930 -> 931 ;
932 [label="squared_error = 0.0\nsamples = 3\nvalue = 10.0"] ;
931 -> 932 ;
933 [label="Size <= 4.0\nsquared_error = 1316.7\nsamples = 8\nvalue = 80.0"] ;
931 -> 933 ;
934 [label="Ad Supported <= 0.5\nsquared_error = 225.0\nsamples = 6\nvalue = 95.0"] ;
933 -> 934 ;
935 [label="squared_error = 0.0\nsamples = 1\nvalue = 50.0"] ;
934 -> 935 ;
936 [label="squared_error = 0.0\nsamples = 5\nvalue = 100.0"] ;
934 -> 936 ;
937 [label="Ad Supported <= 0.5\nsquared_error = 25.0\nsamples = 2\nvalue = 5.0"] ;
933 -> 937 ;
938 [label="squared_error = 0.0\nsamples = 1\nvalue = 10.0"] ;
937 -> 938 ;
939 [label="squared_error = 0.0\nsamples = 1\nvalue = 0.0"] ;
937 -> 939 ;
940 [label="Size <= 4.2\nsquared_error = 58567.5\nsamples = 13\nvalue = 138.2"] ;
930 -> 940 ;
941 [label="Ad Supported <= 0.5\nsquared_error = 202500.0\nsamples = 2\nvalue = 550.0"] ;
940 -> 941 ;
942 [label="squared_error = 0.0\nsamples = 1\nvalue = 100.0"] ;
941 -> 942 ;
943 [label="squared_error = 0.0\nsamples = 1\nvalue = 1000.0"] ;
941 -> 943 ;
944 [label="Size <= 5.0\nsquared_error = 13755.6\nsamples = 11\nvalue = 83.3"] ;
940 -> 944 ;
945 [label="Minimum Android <= 4.2\nsquared_error = 1104.0\nsamples = 7\nvalue = 44.0"] ;
944 -> 945 ;
946 [label="In App Purchases <= 0.5\nsquared_error = 839.5\nsamples = 6\nvalue = 37.8"] ;
945 -> 946 ;
947 [label="Size <= 4.8\nsquared_error = 795.9\nsamples = 5\nvalue = 45.7"] ;
946 -> 947 ;
948 [label="Size <= 4.6\nsquared_error = 400.0\nsamples = 4\nvalue = 60.0"] ;
947 -> 948 ;
949 [label="squared_error = 0.0\nsamples = 2\nvalue = 50.0"] ;
948 -> 949 ;
950 [label="Minimum Android <= 4.1\nsquared_error = 625.0\nsamples = 2\nvalue = 75.0"] ;
948 -> 950 ;
951 [label="squared_error = 0.0\nsamples = 1\nvalue = 50.0"] ;
950 -> 951 ;
952 [label="squared_error = 0.0\nsamples = 1\nvalue = 100.0"] ;
950 -> 952 ;
953 [label="squared_error = 0.0\nsamples = 1\nvalue = 10.0"] ;
947 -> 953 ;
954 [label="squared_error = 0.0\nsamples = 1\nvalue = 10.0"] ;
946 -> 954 ;
955 [label="squared_error = 0.0\nsamples = 1\nvalue = 100.0"] ;
945 -> 955 ;
956 [label="Minimum Android <= 4.1\nsquared_error = 29776.0\nsamples = 4\nvalue = 162.0"] ;
944 -> 956 ;
957 [label="Size <= 5.0\nsquared_error = 1518.8\nsamples = 3\nvalue = 77.5"] ;
956 -> 957 ;
958 [label="squared_error = 0.0\nsamples = 1\nvalue = 10.0"] ;
957 -> 958 ;
959 [label="squared_error = 0.0\nsamples = 2\nvalue = 100.0"] ;
957 -> 959 ;
960 [label="squared_error = 0.0\nsamples = 1\nvalue = 500.0"] ;
956 -> 960 ;
961 [label="squared_error = 0.0\nsamples = 1\nvalue = 500.0"] ;
929 -> 961 ;
962 [label="Category <= 18.5\nsquared_error = 1768.8\nsamples = 24\nvalue = 53.2"] ;
928 -> 962 ;
963 [label="Minimum Android <= 4.2\nsquared_error = 1527.2\nsamples = 17\nvalue = 68.2"] ;
962 -> 963 ;
964 [label="Category <= 17.5\nsquared_error = 1167.1\nsamples = 13\nvalue = 78.2"] ;
963 -> 964 ;
965 [label="Size <= 4.5\nsquared_error = 1359.4\nsamples = 12\nvalue = 70.0"] ;
964 -> 965 ;
966 [label="Size <= 3.6\nsquared_error = 729.0\nsamples = 8\nvalue = 91.0"] ;
965 -> 966 ;
967 [label="Ad Supported <= 0.5\nsquared_error = 1800.0\nsamples = 3\nvalue = 70.0"] ;
966 -> 967 ;
968 [label="squared_error = 0.0\nsamples = 1\nvalue = 100.0"] ;
967 -> 968 ;
969 [label="squared_error = 2025.0\nsamples = 2\nvalue = 55.0"] ;
967 -> 969 ;
970 [label="squared_error = 0.0\nsamples = 5\nvalue = 100.0"] ;
966 -> 970 ;
971 [label="Content Rating <= 1.0\nsquared_error = 450.0\nsamples = 4\nvalue = 35.0"] ;
965 -> 971 ;
972 [label="squared_error = 0.0\nsamples = 3\nvalue = 50.0"] ;
971 -> 972 ;
973 [label="squared_error = 0.0\nsamples = 1\nvalue = 5.0"] ;
971 -> 973 ;
974 [label="squared_error = 0.0\nsamples = 1\nvalue = 100.0"] ;
964 -> 974 ;
975 [label="Size <= 3.1\nsquared_error = 1147.2\nsamples = 4\nvalue = 31.7"] ;
963 -> 975 ;
976 [label="squared_error = 0.0\nsamples = 1\nvalue = 100.0"] ;
975 -> 976 ;
977 [label="Price <= 0.5\nsquared_error = 256.0\nsamples = 3\nvalue = 18.0"] ;
975 -> 977 ;
978 [label="squared_error = 0.0\nsamples = 2\nvalue = 10.0"] ;
977 -> 978 ;
979 [label="squared_error = 0.0\nsamples = 1\nvalue = 50.0"] ;
977 -> 979 ;
980 [label="Ad Supported <= 0.5\nsquared_error = 766.9\nsamples = 7\nvalue = 21.0"] ;
962 -> 980 ;
981 [label="Size <= 3.5\nsquared_error = 1024.5\nsamples = 4\nvalue = 34.3"] ;
980 -> 981 ;
982 [label="squared_error = 0.0\nsamples = 1\nvalue = 10.0"] ;
981 -> 982 ;
983 [label="Size <= 4.3\nsquared_error = 1018.8\nsamples = 3\nvalue = 52.5"] ;
981 -> 983 ;
984 [label="squared_error = 0.0\nsamples = 1\nvalue = 100.0"] ;
983 -> 984 ;
985 [label="Size <= 4.9\nsquared_error = 355.6\nsamples = 2\nvalue = 36.7"] ;
983 -> 985 ;
986 [label="squared_error = 0.0\nsamples = 1\nvalue = 10.0"] ;
985 -> 986 ;
987 [label="squared_error = 0.0\nsamples = 1\nvalue = 50.0"] ;
985 -> 987 ;
988 [label="squared_error = 20.2\nsamples = 3\nvalue = 5.5"] ;
980 -> 988 ;
989 [label="Size <= 3.8\nsquared_error = 25182.0\nsamples = 19\nvalue = 128.3"] ;
927 -> 989 ;
990 [label="Minimum Android <= 4.7\nsquared_error = 1391.8\nsamples = 7\nvalue = 77.1"] ;
989 -> 990 ;
991 [label="Size <= 3.5\nsquared_error = 1750.0\nsamples = 5\nvalue = 60.0"] ;
990 -> 991 ;
992 [label="Size <= 3.2\nsquared_error = 1222.2\nsamples = 4\nvalue = 76.7"] ;
991 -> 992 ;
993 [label="Ad Supported <= 0.5\nsquared_error = 1296.0\nsamples = 3\nvalue = 82.0"] ;
992 -> 993 ;
994 [label="squared_error = 0.0\nsamples = 1\nvalue = 100.0"] ;
993 -> 994 ;
995 [label="squared_error = 1518.8\nsamples = 2\nvalue = 77.5"] ;
993 -> 995 ;
996 [label="squared_error = 0.0\nsamples = 1\nvalue = 50.0"] ;
992 -> 996 ;
997 [label="squared_error = 0.0\nsamples = 1\nvalue = 10.0"] ;
991 -> 997 ;
998 [label="squared_error = 0.0\nsamples = 2\nvalue = 100.0"] ;
990 -> 998 ;
999 [label="Category <= 18.0\nsquared_error = 38725.1\nsamples = 12\nvalue = 164.0"] ;
989 -> 999 ;
1000 [label="Size <= 4.0\nsquared_error = 32630.7\nsamples = 10\nvalue = 130.1"] ;
999 -> 1000 ;
1001 [label="Category <= 16.0\nsquared_error = 6.2\nsamples = 2\nvalue = 7.5"] ;
1000 -> 1001 ;
1002 [label="squared_error = 0.0\nsamples = 1\nvalue = 10.0"] ;
1001 -> 1002 ;
1003 [label="squared_error = 0.0\nsamples = 1\nvalue = 5.0"] ;
1001 -> 1003 ;
1004 [label="Size <= 4.0\nsquared_error = 36829.2\nsamples = 8\nvalue = 170.9"] ;
1000 -> 1004 ;
1005 [label="squared_error = 0.0\nsamples = 1\nvalue = 500.0"] ;
1004 -> 1005 ;
1006 [label="Size <= 4.6\nsquared_error = 18204.1\nsamples = 7\nvalue = 105.1"] ;
1004 -> 1006 ;
1007 [label="Size <= 4.5\nsquared_error = 22653.1\nsamples = 5\nvalue = 135.7"] ;
1006 -> 1007 ;
1008 [label="Size <= 4.2\nsquared_error = 625.0\nsamples = 4\nvalue = 75.0"] ;
1007 -> 1008 ;
1009 [label="squared_error = 0.0\nsamples = 1\nvalue = 50.0"] ;
1008 -> 1009 ;
1010 [label="squared_error = 0.0\nsamples = 3\nvalue = 100.0"] ;
1008 -> 1010 ;
1011 [label="squared_error = 0.0\nsamples = 1\nvalue = 500.0"] ;
1007 -> 1011 ;
1012 [label="Minimum Android <= 5.2\nsquared_error = 533.6\nsamples = 2\nvalue = 33.7"] ;
1006 -> 1012 ;
1013 [label="squared_error = 0.0\nsamples = 1\nvalue = 50.0"] ;
1012 -> 1013 ;
1014 [label="squared_error = 0.0\nsamples = 1\nvalue = 1.0"] ;
1012 -> 1014 ;
1015 [label="Minimum Android <= 4.7\nsquared_error = 40000.0\nsamples = 2\nvalue = 300.0"] ;
999 -> 1015 ;
1016 [label="squared_error = 0.0\nsamples = 1\nvalue = 500.0"] ;
1015 -> 1016 ;
1017 [label="squared_error = 0.0\nsamples = 1\nvalue = 100.0"] ;
1015 -> 1017 ;
1018 [label="Size <= 8.8\nsquared_error = 103832.4\nsamples = 98\nvalue = 209.4"] ;
926 -> 1018 ;
1019 [label="Category <= 15.5\nsquared_error = 141663.0\nsamples = 63\nvalue = 263.5"] ;
1018 -> 1019 ;
1020 [label="Size <= 6.0\nsquared_error = 183386.2\nsamples = 29\nvalue = 340.8"] ;
1019 -> 1020 ;
1021 [label="Minimum Android <= 4.7\nsquared_error = 171358.0\nsamples = 5\nvalue = 644.4"] ;
1020 -> 1021 ;
1022 [label="Minimum Android <= 4.1\nsquared_error = 34722.2\nsamples = 3\nvalue = 916.7"] ;
1021 -> 1022 ;
1023 [label="squared_error = 0.0\nsamples = 1\nvalue = 500.0"] ;
1022 -> 1023 ;
1024 [label="squared_error = 0.0\nsamples = 2\nvalue = 1000.0"] ;
1022 -> 1024 ;
1025 [label="squared_error = 0.0\nsamples = 2\nvalue = 100.0"] ;
1021 -> 1025 ;
1026 [label="In App Purchases <= 0.5\nsquared_error = 163123.1\nsamples = 24\nvalue = 278.6"] ;
1020 -> 1026 ;
1027 [label="Minimum Android <= 5.5\nsquared_error = 144931.6\nsamples = 23\nvalue = 244.3"] ;
1026 -> 1027 ;
1028 [label="Minimum Android <= 4.1\nsquared_error = 122195.2\nsamples = 22\nvalue = 206.5"] ;
1027 -> 1028 ;
1029 [label="Size <= 7.2\nsquared_error = 248137.1\nsamples = 4\nvalue = 501.9"] ;
1028 -> 1029 ;
1030 [label="Size <= 6.7\nsquared_error = 156816.0\nsamples = 2\nvalue = 802.0"] ;
1029 -> 1030 ;
1031 [label="squared_error = 0.0\nsamples = 1\nvalue = 10.0"] ;
1030 -> 1031 ;
1032 [label="squared_error = 0.0\nsamples = 1\nvalue = 1000.0"] ;
1030 -> 1032 ;
1033 [label="Size <= 7.9\nsquared_error = 5.6\nsamples = 2\nvalue = 1.7"] ;
1029 -> 1033 ;
1034 [label="squared_error = 0.0\nsamples = 1\nvalue = 5.0"] ;
1033 -> 1034 ;
1035 [label="squared_error = 0.0\nsamples = 1\nvalue = 0.0"] ;
1033 -> 1035 ;
1036 [label="Ad Supported <= 0.5\nsquared_error = 63445.3\nsamples = 18\nvalue = 132.7"] ;
1028 -> 1036 ;
1037 [label="Minimum Android <= 4.4\nsquared_error = 15912.4\nsamples = 10\nvalue = 55.4"] ;
1036 -> 1037 ;
1038 [label="Minimum Android <= 4.2\nsquared_error = 38416.0\nsamples = 2\nvalue = 108.0"] ;
1037 -> 1038 ;
1039 [label="squared_error = 0.0\nsamples = 1\nvalue = 10.0"] ;
1038 -> 1039 ;
1040 [label="squared_error = 0.0\nsamples = 1\nvalue = 500.0"] ;
1038 -> 1040 ;
1041 [label="Size <= 7.5\nsquared_error = 1015.4\nsamples = 8\nvalue = 26.1"] ;
1037 -> 1041 ;
1042 [label="Size <= 6.6\nsquared_error = 1324.0\nsamples = 5\nvalue = 41.0"] ;
1041 -> 1042 ;
1043 [label="Minimum Android <= 4.7\nsquared_error = 6.2\nsamples = 2\nvalue = 2.5"] ;
1042 -> 1043 ;
1044 [label="squared_error = 0.0\nsamples = 1\nvalue = 5.0"] ;
1043 -> 1044 ;
1045 [label="squared_error = 0.0\nsamples = 1\nvalue = 0.0"] ;
1043 -> 1045 ;
1046 [label="Size <= 7.4\nsquared_error = 555.6\nsamples = 3\nvalue = 66.7"] ;
1042 -> 1046 ;
1047 [label="squared_error = 0.0\nsamples = 2\nvalue = 50.0"] ;
1046 -> 1047 ;
1048 [label="squared_error = 0.0\nsamples = 1\nvalue = 100.0"] ;
1046 -> 1048 ;
1049 [label="Minimum Android <= 4.7\nsquared_error = 6.2\nsamples = 3\nvalue = 7.5"] ;
1041 -> 1049 ;
1050 [label="squared_error = 0.0\nsamples = 1\nvalue = 5.0"] ;
1049 -> 1050 ;
1051 [label="squared_error = 0.0\nsamples = 2\nvalue = 10.0"] ;
1049 -> 1051 ;
1052 [label="Size <= 7.5\nsquared_error = 92153.4\nsamples = 8\nvalue = 192.8"] ;
1036 -> 1052 ;
1053 [label="Size <= 7.2\nsquared_error = 172910.2\nsamples = 4\nvalue = 344.3"] ;
1052 -> 1053 ;
1054 [label="Size <= 6.2\nsquared_error = 1296.0\nsamples = 3\nvalue = 82.0"] ;
1053 -> 1054 ;
1055 [label="squared_error = 0.0\nsamples = 1\nvalue = 100.0"] ;
1054 -> 1055 ;
1056 [label="Size <= 6.8\nsquared_error = 2025.0\nsamples = 2\nvalue = 55.0"] ;
1054 -> 1056 ;
1057 [label="squared_error = 0.0\nsamples = 1\nvalue = 10.0"] ;
1056 -> 1057 ;
1058 [label="squared_error = 0.0\nsamples = 1\nvalue = 100.0"] ;
1056 -> 1058 ;
1059 [label="squared_error = 0.0\nsamples = 1\nvalue = 1000.0"] ;
1053 -> 1059 ;
1060 [label="Minimum Android <= 4.7\nsquared_error = 16859.5\nsamples = 4\nvalue = 96.4"] ;
1052 -> 1060 ;
1061 [label="Size <= 8.1\nsquared_error = 60025.0\nsamples = 2\nvalue = 255.0"] ;
1060 -> 1061 ;
1062 [label="squared_error = 0.0\nsamples = 1\nvalue = 500.0"] ;
1061 -> 1062 ;
1063 [label="squared_error = 0.0\nsamples = 1\nvalue = 10.0"] ;
1061 -> 1063 ;
1064 [label="Size <= 7.7\nsquared_error = 432.1\nsamples = 2\nvalue = 61.1"] ;
1060 -> 1064 ;
1065 [label="squared_error = 0.0\nsamples = 1\nvalue = 50.0"] ;
1064 -> 1065 ;
1066 [label="squared_error = 0.0\nsamples = 1\nvalue = 100.0"] ;
1064 -> 1066 ;
1067 [label="squared_error = 0.0\nsamples = 1\nvalue = 1000.0"] ;
1027 -> 1067 ;
1068 [label="squared_error = 0.0\nsamples = 1\nvalue = 1000.0"] ;
1026 -> 1068 ;
1069 [label="Minimum Android <= 4.2\nsquared_error = 83082.1\nsamples = 34\nvalue = 179.9"] ;
1019 -> 1069 ;
1070 [label="Size <= 7.9\nsquared_error = 25278.1\nsamples = 19\nvalue = 120.7"] ;
1069 -> 1070 ;
1071 [label="Category <= 18.0\nsquared_error = 10674.8\nsamples = 14\nvalue = 80.5"] ;
1070 -> 1071 ;
1072 [label="Size <= 6.0\nsquared_error = 1468.2\nsamples = 12\nvalue = 56.1"] ;
1071 -> 1072 ;
1073 [label="Minimum Android <= 4.1\nsquared_error = 510.2\nsamples = 4\nvalue = 85.7"] ;
1072 -> 1073 ;
1074 [label="Size <= 5.4\nsquared_error = 625.0\nsamples = 3\nvalue = 75.0"] ;
1073 -> 1074 ;
1075 [label="squared_error = 0.0\nsamples = 2\nvalue = 100.0"] ;
1074 -> 1075 ;
1076 [label="squared_error = 0.0\nsamples = 1\nvalue = 50.0"] ;
1074 -> 1076 ;
1077 [label="squared_error = 0.0\nsamples = 1\nvalue = 100.0"] ;
1073 -> 1077 ;
1078 [label="Ad Supported <= 0.5\nsquared_error = 1165.3\nsamples = 8\nvalue = 37.3"] ;
1072 -> 1078 ;
1079 [label="squared_error = 0.0\nsamples = 2\nvalue = 10.0"] ;
1078 -> 1079 ;
1080 [label="Size <= 7.4\nsquared_error = 1163.3\nsamples = 6\nvalue = 52.9"] ;
1078 -> 1080 ;
1081 [label="Minimum Android <= 4.0\nsquared_error = 625.0\nsamples = 3\nvalue = 75.0"] ;
1080 -> 1081 ;
1082 [label="squared_error = 0.0\nsamples = 1\nvalue = 100.0"] ;
1081 -> 1082 ;
1083 [label="Size <= 7.2\nsquared_error = 555.6\nsamples = 2\nvalue = 66.7"] ;
1081 -> 1083 ;
1084 [label="squared_error = 0.0\nsamples = 1\nvalue = 50.0"] ;
1083 -> 1084 ;
1085 [label="squared_error = 0.0\nsamples = 1\nvalue = 100.0"] ;
1083 -> 1085 ;
1086 [label="Size <= 7.6\nsquared_error = 355.6\nsamples = 3\nvalue = 23.3"] ;
1080 -> 1086 ;
1087 [label="squared_error = 400.0\nsamples = 2\nvalue = 30.0"] ;
1086 -> 1087 ;
1088 [label="squared_error = 0.0\nsamples = 1\nvalue = 10.0"] ;
1086 -> 1088 ;
1089 [label="Ad Supported <= 0.5\nsquared_error = 40000.0\nsamples = 2\nvalue = 300.0"] ;
1071 -> 1089 ;
1090 [label="squared_error = 0.0\nsamples = 1\nvalue = 500.0"] ;
1089 -> 1090 ;
1091 [label="squared_error = 0.0\nsamples = 1\nvalue = 100.0"] ;
1089 -> 1091 ;
1092 [label="Size <= 8.4\nsquared_error = 47635.9\nsamples = 5\nvalue = 221.2"] ;
1070 -> 1092 ;
1093 [label="Minimum Android <= 4.0\nsquared_error = 45018.8\nsamples = 2\nvalue = 377.5"] ;
1092 -> 1093 ;
1094 [label="squared_error = 0.0\nsamples = 1\nvalue = 10.0"] ;
1093 -> 1094 ;
1095 [label="squared_error = 0.0\nsamples = 1\nvalue = 500.0"] ;
1093 -> 1095 ;
1096 [label="Ad Supported <= 0.5\nsquared_error = 1425.0\nsamples = 3\nvalue = 65.0"] ;
1092 -> 1096 ;
1097 [label="Category <= 18.0\nsquared_error = 400.0\nsamples = 2\nvalue = 30.0"] ;
1096 -> 1097 ;
1098 [label="squared_error = 0.0\nsamples = 1\nvalue = 10.0"] ;
1097 -> 1098 ;
1099 [label="squared_error = 0.0\nsamples = 1\nvalue = 50.0"] ;
1097 -> 1099 ;
1100 [label="squared_error = 0.0\nsamples = 1\nvalue = 100.0"] ;
1096 -> 1100 ;
1101 [label="Minimum Android <= 4.4\nsquared_error = 149271.8\nsamples = 15\nvalue = 258.7"] ;
1069 -> 1101 ;
1102 [label="squared_error = 0.0\nsamples = 3\nvalue = 1000.0"] ;
1101 -> 1102 ;
1103 [label="Minimum Android <= 4.7\nsquared_error = 67302.4\nsamples = 12\nvalue = 135.2"] ;
1101 -> 1103 ;
1104 [label="Ad Supported <= 0.5\nsquared_error = 2090.2\nsamples = 3\nvalue = 35.5"] ;
1103 -> 1104 ;
1105 [label="squared_error = 0.0\nsamples = 1\nvalue = 100.0"] ;
1104 -> 1105 ;
1106 [label="Size <= 8.1\nsquared_error = 15.2\nsamples = 2\nvalue = 3.2"] ;
1104 -> 1106 ;
1107 [label="squared_error = 0.0\nsamples = 1\nvalue = 1.0"] ;
1106 -> 1107 ;
1108 [label="squared_error = 0.0\nsamples = 1\nvalue = 10.0"] ;
1106 -> 1108 ;
1109 [label="Content Rating <= 1.0\nsquared_error = 92458.3\nsamples = 9\nvalue = 185.0"] ;
1103 -> 1109 ;
1110 [label="Category <= 18.0\nsquared_error = 108602.5\nsamples = 7\nvalue = 245.6"] ;
1109 -> 1110 ;
1111 [label="Size <= 7.0\nsquared_error = 163355.6\nsamples = 3\nvalue = 503.3"] ;
1110 -> 1111 ;
1112 [label="Size <= 5.5\nsquared_error = 62500.0\nsamples = 2\nvalue = 750.0"] ;
1111 -> 1112 ;
1113 [label="squared_error = 0.0\nsamples = 1\nvalue = 500.0"] ;
1112 -> 1113 ;
1114 [label="squared_error = 0.0\nsamples = 1\nvalue = 1000.0"] ;
1112 -> 1114 ;
1115 [label="squared_error = 0.0\nsamples = 1\nvalue = 10.0"] ;
1111 -> 1115 ;
1116 [label="Size <= 7.8\nsquared_error = 31388.9\nsamples = 4\nvalue = 116.7"] ;
1110 -> 1116 ;
1117 [label="Size <= 5.8\nsquared_error = 2400.0\nsamples = 3\nvalue = 40.0"] ;
1116 -> 1117 ;
1118 [label="squared_error = 0.0\nsamples = 1\nvalue = 0.0"] ;
1117 -> 1118 ;
1119 [label="squared_error = 0.0\nsamples = 2\nvalue = 100.0"] ;
1117 -> 1119 ;
1120 [label="squared_error = 0.0\nsamples = 1\nvalue = 500.0"] ;
1116 -> 1120 ;
1121 [label="Ad Supported <= 0.5\nsquared_error = 22.2\nsamples = 2\nvalue = 3.3"] ;
1109 -> 1121 ;
1122 [label="squared_error = 0.0\nsamples = 1\nvalue = 10.0"] ;
1121 -> 1122 ;
1123 [label="squared_error = 0.0\nsamples = 1\nvalue = 0.0"] ;
1121 -> 1123 ;
1124 [label="Minimum Android <= 4.4\nsquared_error = 30209.6\nsamples = 35\nvalue = 122.0"] ;
1018 -> 1124 ;
1125 [label="Category <= 14.5\nsquared_error = 52393.0\nsamples = 21\nvalue = 181.9"] ;
1124 -> 1125 ;
1126 [label="squared_error = 0.0\nsamples = 1\nvalue = 1000.0"] ;
1125 -> 1126 ;
1127 [label="Minimum Android <= 4.2\nsquared_error = 31088.2\nsamples = 20\nvalue = 154.7"] ;
1125 -> 1127 ;
1128 [label="Minimum Android <= 4.0\nsquared_error = 21382.2\nsamples = 17\nvalue = 117.6"] ;
1127 -> 1128 ;
1129 [label="Size <= 10.1\nsquared_error = 50331.6\nsamples = 5\nvalue = 244.3"] ;
1128 -> 1129 ;
1130 [label="squared_error = 0.0\nsamples = 1\nvalue = 500.0"] ;
1129 -> 1130 ;
1131 [label="Minimum Android <= 3.5\nsquared_error = 33846.0\nsamples = 4\nvalue = 142.0"] ;
1129 -> 1131 ;
1132 [label="squared_error = 0.0\nsamples = 2\nvalue = 5.0"] ;
1131 -> 1132 ;
1133 [label="Content Rating <= 1.5\nsquared_error = 35555.6\nsamples = 2\nvalue = 233.3"] ;
1131 -> 1133 ;
1134 [label="squared_error = 0.0\nsamples = 1\nvalue = 500.0"] ;
1133 -> 1134 ;
1135 [label="squared_error = 0.0\nsamples = 1\nvalue = 100.0"] ;
1133 -> 1135 ;
1136 [label="Size <= 11.5\nsquared_error = 1455.6\nsamples = 12\nvalue = 68.3"] ;
1128 -> 1136 ;
1137 [label="Size <= 10.5\nsquared_error = 1291.3\nsamples = 11\nvalue = 72.1"] ;
1136 -> 1137 ;
1138 [label="Category <= 18.5\nsquared_error = 1374.6\nsamples = 9\nvalue = 63.5"] ;
1137 -> 1138 ;
1139 [label="Size <= 9.2\nsquared_error = 1010.3\nsamples = 8\nvalue = 73.2"] ;
1138 -> 1139 ;
1140 [label="squared_error = 0.0\nsamples = 2\nvalue = 100.0"] ;
1139 -> 1140 ;
1141 [label="Category <= 17.5\nsquared_error = 1018.4\nsamples = 6\nvalue = 63.1"] ;
1139 -> 1141 ;
1142 [label="Minimum Android <= 4.1\nsquared_error = 941.8\nsamples = 5\nvalue = 57.9"] ;
1141 -> 1142 ;
1143 [label="Size <= 9.9\nsquared_error = 753.5\nsamples = 4\nvalue = 50.8"] ;
1142 -> 1143 ;
1144 [label="Ad Supported <= 0.5\nsquared_error = 400.0\nsamples = 3\nvalue = 60.0"] ;
1143 -> 1144 ;
